770 100
</s> 0.23179813 0.25135925 0.20787728 -0.14709681 0.013119586 -0.1300283 0.47124878 0.8505765 0.07560774 0.08497961 -0.00015844646 -0.06810493 -0.24159501 0.019554336 0.02284351 0.32719773 0.31182605 -0.077056326 -0.29003757 0.2725894 0.318407 0.029182378 0.4354115 -0.12822929 0.068490855 0.00829363 -0.1931487 -0.12582631 0.038727067 -0.20751804 -0.24020548 -0.1591713 -0.23682995 -0.1865277 0.042584866 -0.10290036 -0.08571545 -0.5186214 0.26460677 -0.18409668 0.22319317 -0.104824446 0.057179123 0.05553585 -0.27730632 0.17883103 -0.24938202 0.012570495 -0.09835931 0.3952833 0.014071248 -0.05864739 -0.28086364 0.013478065 -0.009165241 -0.1357375 -0.0066535124 0.122471 0.06839973 -0.08133017 -0.3524534 -0.060135026 -0.1723434 -0.26415354 -0.28082865 -0.09780743 -0.23917452 0.10592358 0.06302571 0.07342881 -0.21217936 0.39657032 -0.52628195 0.08873416 -0.032586273 0.140359 0.006600909 0.21569102 0.6176669 -0.15949579 0.015797647 0.15784009 0.26965916 -0.06260919 0.035401102 0.012038465 -0.15961282 -0.06400723 -0.15718774 -0.46433505 0.080801755 -0.29850388 0.2073893 0.34507442 0.08056868 -0.26340505 -0.04190779 0.16205041 -0.31278172 0.1752437
index(uint256) -0.039558545 -0.2649533 0.11426972 0.39843225 0.52962995 0.058344945 0.03460583 0.24515347 0.11854973 -0.36851954 -0.2489575 -0.28045863 0.112273194 0.18397124 -0.12809427 0.06267642 -0.16229449 -0.12565407 -0.017141147 0.10686936 0.10585552 0.12546033 -0.029335244 0.121898 -0.06672125 0.071542725 -0.35766247 -0.18783845 -0.07344209 -0.09365938 -0.014787873 0.07094614 -0.43798938 -0.33591124 -0.21591917 -0.29567468 -0.12479912 0.022442803 0.3343129 0.06829061 0.23620625 0.13612762 0.09804909 0.004815782 -0.67220247 -0.21950483 -0.05692433 0.038746465 0.057230026 -0.18573856 -0.026212368 0.18021007 -0.37280166 0.0143674025 -0.17533973 0.262053 -0.087162286 0.3070617 -0.2492026 -0.017314691 -0.6328679 0.08353275 -0.5094233 0.5232895 -0.026643315 -0.25400525 -0.25998542 0.1907974 0.114933036 0.17368767 -0.20852908 0.17370199 -0.044483826 0.14355229 -0.029336082 -0.02686235 0.06066505 0.24967027 0.09438061 -0.22512814 0.38516673 0.14889584 0.416927 0.4569015 0.04011966 -0.040443834 0.0077957874 0.15963398 -0.4310663 0.044344988 0.4582491 -0.23918386 0.15927981 0.41093364 -0.03911694 0.3500684 -0.38430342 0.07010591 0.23102106 0.051826008
return 0.21174897 0.33389118 0.093269624 0.1544205 0.23964728 0.10011511 -0.0105802305 0.4385081 0.22118671 0.036719263 -0.20155458 -0.16102101 -0.08849608 0.09415003 -0.15981567 -0.11827924 -0.25879464 0.24885365 -0.08166776 0.028092168 -0.038479373 0.74228936 0.048718926 0.18706086 0.32946995 -0.03152056 -0.212817 -0.16772386 -0.24032839 -0.22568882 -0.5227266 -0.30429313 -0.34571683 -0.11533539 0.3465694 0.16413204 -0.3552936 -0.13812841 0.048516784 -0.18884109 0.5148883 -0.022350777 0.0064153117 0.41175014 0.19936296 0.030438887 -0.056995016 -0.07055523 -0.1157789 0.18950875 0.30120423 -0.06785935 -0.09814659 -0.34681487 -0.23998748 0.0053718304 -0.23283477 0.10861875 -0.25762808 0.1517573 -0.29850593 0.1409875 0.5092841 0.2578919 -0.35954642 0.017494624 0.2149342 -0.0034419063 0.3538422 0.49764296 -0.4393025 -0.16256052 0.036950808 0.29445043 0.04271057 -0.28561637 0.18421884 -0.06601133 -0.050794125 -0.11579464 -0.08327762 -0.02349002 0.28759742 -0.12553191 0.2072129 0.020127742 -0.42877328 0.072703436 -0.16909406 0.034810077 0.41858125 0.2677926 0.11788159 0.38328582 -0.07125237 0.075874425 -0.11372926 0.09871955 -0.20111577 0.040061004
member -0.20675616 -0.3848813 0.24166374 -0.18177928 0.23737471 -0.124598615 -0.47508472 0.30736476 0.031260934 0.15439297 0.36869058 -0.31822732 -0.07218093 -0.16002731 0.060338084 0.07012899 -0.22696422 -0.067095816 0.057365235 0.26682112 -0.20008735 0.025987677 0.42811102 0.06421617 0.08002506 -0.21940792 -0.043122683 -0.18280943 0.07744156 0.36759615 0.13658401 0.3346651 -0.26179928 -0.07482588 -0.13678508 -0.22134633 -0.2296123 -0.2892293 0.19419691 -0.01915393 0.5758316 0.090589345 -0.21911258 -0.123490974 -0.059300147 -0.01995053 0.09017756 -0.14964391 0.2869076 0.015858004 -0.09426322 0.42111874 0.3773177 -0.2203274 0.18736812 -0.35408184 -0.12282886 0.016725596 -0.14601159 0.045823246 -0.03701402 -0.018432196 0.34615448 0.10265699 -0.24990764 -0.27876115 0.20561889 0.13556997 0.48397094 0.010618786 -0.04195026 0.17380463 -0.2032351 0.2331821 0.022767767 -0.12472793 -0.21966867 -0.05382269 0.30662802 0.15177387 0.23899588 0.16771051 0.10321903 0.12630785 0.07505323 -0.22005214 0.17593919 0.122162655 -0.42692757 0.18741308 0.11370609 -0.11412641 0.084594704 0.030436566 0.08801979 -0.22164242 -0.31660402 -0.015453987 -0.31451583 -0.34721547
library_call 0.24092393 -0.035687804 0.15236475 0.30028614 0.061518297 0.20532395 -0.021746038 -0.022065442 0.07472547 0.21422005 0.23776786 -0.5577858 0.009153096 0.13967986 -0.2866988 0.4241947 -0.26408768 -0.2907933 -0.08245373 -0.099392205 0.35668263 0.33417568 0.14980519 0.056900192 -0.1400245 0.24088746 -0.4667095 -0.4151291 0.2017707 -0.269944 -0.17100747 -0.09352087 -0.1877015 -0.07342913 -0.1294194 0.017148094 -0.063597396 0.10315829 0.23199807 -0.16449298 0.34576324 -0.13281351 -0.2811853 -0.0062699774 -0.23000495 0.016313642 0.21452789 -0.07696895 0.0928351 -0.026829101 0.012899507 -0.03455696 -0.41748717 -0.1944759 -0.052039217 0.0006371917 -0.027537983 -0.022585144 0.12953512 0.074545436 -0.29756567 0.08985761 -0.09835758 -0.16627833 -0.14880913 0.16265266 0.18740104 0.48836553 0.18946719 0.40083405 0.19195725 0.12134113 -0.010435909 0.12378924 -0.54901284 -0.17452031 0.15510733 0.56350887 0.17331581 0.07467582 0.15057178 0.37733126 0.49861643 0.32552284 0.21883257 0.18583179 -0.02383131 0.25902808 -0.24756126 0.12279275 -0.0074362555 0.13527793 -0.061869863 0.19630742 -0.086512 -0.11101914 -0.15802844 -0.12496835 -0.083705924 -0.40530157
condition(temporary_variable) 0.14104304 -0.18116616 -0.23578945 0.19905184 0.12942196 -0.07668126 -0.080501385 0.16199 0.17579716 -0.0872379 0.115254015 0.10696281 0.21853055 0.16853142 0.10505441 0.004258501 -0.288044 0.13594471 -0.14873454 -0.04063028 -0.13411234 0.14739665 0.20440982 -0.035880614 0.257672 0.2455252 -0.15052426 -0.21512921 0.20692112 -0.061770137 -0.2713396 -0.022851251 -0.06844672 -0.028884798 -0.13946244 -0.14513716 -0.22732674 -0.37992403 0.18944371 -0.0985306 0.36670277 0.091933616 -0.17584416 -0.13279735 -0.3500424 -0.02475859 -0.123225026 0.023959242 0.18436176 0.2428591 0.6451145 -0.027484914 -0.1320484 0.1630675 -0.10677865 -0.28269655 0.07162003 -0.0942856 0.09784472 -0.05890001 -0.15579489 0.038160935 0.34220335 0.08965716 -0.27318248 0.09949261 0.17336015 -0.038630147 0.19161963 -0.10101631 -0.25072172 0.18226461 0.11473525 -0.010354272 -0.036962878 -0.03764848 0.08005769 0.12152312 0.2744216 0.16163458 0.07105947 0.106521256 0.2538846 -0.102636755 0.13535993 0.011668749 0.017941425 0.07961328 -0.10109142 -0.3561578 -0.016492095 0.14640032 0.15567999 0.24141088 0.024007665 -0.06373159 -0.1597621 -0.04717473 -0.26562336 -0.3112803
solidity_call(require(bool)) 0.06757922 0.04282109 -0.07120002 0.66577643 -0.19078769 0.2536787 0.27990282 0.19504935 0.11811462 0.014808269 -0.14998698 -0.2004194 -0.07902805 0.12160199 -0.30070233 0.15637785 0.15552574 0.22658491 0.09644221 0.04243438 -0.09353388 0.1795444 -0.043641645 0.096850984 0.32132912 0.09211405 -0.46000218 -0.22967607 -0.01464064 -0.2992119 -0.30094454 -0.3519186 -0.30770946 -0.27863732 -0.24201627 0.27291304 -0.17742136 -0.50044143 0.09427078 0.173774 0.1768933 -0.22595365 -0.10719295 -0.015468043 -0.2954512 -0.07886376 0.17439687 -0.018196367 0.2582643 0.19413173 0.008254059 0.0076235463 0.13385 -0.113229275 -0.07200241 0.13635562 0.08310515 0.1276027 0.23639528 -0.28806692 -0.071557954 0.14503303 -0.20170896 -0.09647616 -0.4926319 -0.12674399 -0.034154247 0.48462856 0.10240606 0.30779558 -0.5351037 0.09248918 -0.35508135 0.08229874 0.07102566 0.04381055 0.021085596 0.31816941 0.24063261 0.28749782 -0.122612305 -0.04411414 0.07767062 0.29016715 -0.0967787 0.18424544 0.10863226 0.16987361 -0.17147283 -0.11836226 0.33113343 -0.13450104 0.06948808 0.09243797 -0.07025432 -0.106940605 -0.30311593 -0.1548339 -0.017038306 -0.03869453
internal_call(Modifier) 0.24266256 0.10364004 0.12841672 0.25722378 -0.23638466 0.33442432 -0.02997289 0.12516645 0.28243575 0.29736224 0.1870666 -0.3966141 0.04936379 -0.10872655 -0.29029644 0.11069253 0.06911423 0.114790216 0.16202278 0.09268986 0.12833452 -0.061110638 0.6003241 -0.026453681 0.15602185 -0.06032818 0.0801594 0.08746953 0.08168707 -0.58142424 -0.1578111 -0.391812 0.00024535944 0.20565325 -0.38350466 0.029897405 -0.41515678 -0.18846814 -0.060388435 0.09667245 0.48396188 0.17326386 -0.044834957 -0.048172146 -0.516964 0.08588139 -0.14004657 -0.024243493 -0.34193707 0.3098737 0.059226375 -0.21934132 -0.18280649 -0.37350827 0.1719076 -0.32873055 0.13487017 0.16728204 -0.110988915 -0.32644105 0.04661615 0.045869727 0.037326142 -0.08423537 -0.07030766 -0.4168694 -0.0067832205 0.3731172 0.22226544 0.3765255 -0.4296265 0.14581878 -0.602765 0.071385786 0.031017402 0.33242354 0.0054987445 0.25241312 0.33444375 0.05537586 -0.21853279 -0.5347215 0.18193202 0.3175637 0.233512 -0.20457296 0.07790211 0.15007302 0.011869639 -0.2751111 0.17796983 -0.4042403 0.029504908 0.13742101 -0.21990322 -0.25719595 -0.18730837 0.118445 -0.064197384 -0.3393021
(local_solc_variable(default)):=(temporary_variable) 0.09271483 -0.0053456966 -0.13152795 0.24299431 -0.00235133 0.042333897 -0.16299368 0.13612667 0.10125276 0.28906015 -0.07157451 -0.1721011 0.06614412 0.18004128 -0.07911699 -0.12806517 -0.26960415 0.13838215 -0.311447 0.23853983 -0.056532364 0.40004018 0.0010807285 0.122822605 0.10165687 0.11731049 -0.40559867 -0.49864694 -0.053477645 -0.010526878 -0.36671734 -0.13109905 -0.16894755 -0.00650116 -0.27429047 0.020785512 -0.24914075 0.07527332 -0.089260146 -0.3159232 0.44107544 0.0046671494 -0.08414118 -0.14933668 -0.21657778 -0.26674774 -0.013243199 -0.091251746 0.068740375 0.27024615 0.63229716 0.098330945 -0.13691747 -0.0021902123 -0.25415018 -0.41758373 0.18424486 0.10929228 0.09988477 -0.15722801 -0.006264185 0.12964301 -0.14216357 -0.3157261 -0.41170758 0.1995497 0.104875095 0.04029253 0.15319672 0.08662828 -0.03066877 -0.14448668 -0.0719936 -0.14851062 -0.08925101 -0.42493087 0.07155429 0.4530243 -0.018815363 -0.14899458 0.016213797 0.33991116 0.1293792 0.06717241 0.32843018 -0.09863222 0.1710897 0.02890584 -0.32634732 -0.024095448 -0.009624269 -0.015705569 0.16086026 0.31318402 0.20442912 -0.048210844 -0.2401498 -0.077958964 0.1478736 -0.16301885
event 0.07759902 0.1397317 0.15542924 0.39621964 0.3443803 0.19151069 0.2565808 0.37060615 -0.019014174 0.015176935 0.15539967 -0.2802159 -0.06438195 -0.07836543 0.36075252 0.2273209 -0.09512565 0.085956134 -0.046401113 0.13498408 0.149285 0.41827217 0.16344361 0.054068647 0.064823166 -0.03751642 -0.11280924 -0.13022271 0.23378584 -0.123531684 -0.098881446 -0.059187014 -0.21729468 0.44378036 -0.20122215 -0.05825199 -0.2618187 -0.2840617 0.10811265 -0.18649776 0.30612954 -0.30311432 -0.04977057 -0.05742232 -0.67468536 0.11914247 0.031637818 -0.048802752 -0.11285939 0.20256628 -0.1759725 -0.17378855 0.19801755 -0.15445507 0.114686705 0.003611994 0.013980932 -0.011382218 0.26060843 0.06545882 -0.2148098 0.043086194 0.20536515 0.21625254 -0.03331715 -0.29354116 -0.19851059 0.1395673 0.37148654 0.14391539 -0.33252922 0.36904174 -0.5689036 -0.094508894 -0.22267935 0.13259384 -0.13847934 0.40658122 -0.10338593 -0.10023171 -0.13591062 -0.05227132 0.28114134 0.2666265 -0.0048694992 -0.10337288 -0.078033276 0.05304463 -0.22649755 0.037101295 0.24237372 -0.26220927 0.13275571 0.66435415 -0.22251005 0.074432455 -0.62971526 -0.09090439 0.12490032 0.06691952
binary(+) 0.25786772 -0.26781785 -0.34188628 -0.09188299 0.46190688 0.026585141 -0.17301787 0.08739742 0.15789981 0.12851025 0.06805604 0.28450385 -0.026617453 0.12131289 -0.11194524 -0.46076924 -0.58873695 0.04450593 -0.07188275 0.047635794 -0.0010128444 -0.05068852 0.23086789 -0.13189684 0.008368609 0.27213582 0.0014850035 -0.24938633 0.22309652 0.18583532 -0.3727971 -0.079024084 -0.09392137 -0.09648373 0.1455463 0.05142815 -0.060211018 -0.004757262 0.06504593 -0.0863623 0.32629412 0.07161329 -0.12525453 -0.36089227 -0.11906463 0.14482316 -0.03870889 0.13033305 -0.07583146 -0.11441527 0.13929835 0.12948641 -0.2571793 -0.039020866 0.18684846 -0.2424586 0.09843957 -0.0022700191 -0.036283128 0.078354485 0.13087943 -0.014338554 -0.290652 -0.1347922 -0.33920255 0.14983436 -0.062429942 0.11583205 0.35807315 0.19805554 -0.5443752 -0.08661578 -0.27338338 -0.22066878 0.040354263 -0.25030756 0.23068863 0.33421677 -0.2070031 -0.1761233 -0.041778464 0.07808307 0.1527032 -0.04763735 -0.08012499 0.16618203 -0.008044321 0.23943752 -0.45387003 -0.3355545 -0.18844108 -0.10469002 0.065007664 -0.06594017 0.11323009 0.13892828 -0.20760065 0.09701473 -0.33253428 -0.0606961
index(struct) -0.17267668 -0.41342062 0.075763755 -0.18723497 0.060889084 0.00015970366 -0.29680794 0.22485983 0.138449 0.21556291 0.067977384 -0.20709136 -0.07421525 -0.12532775 0.16179883 0.06096919 -0.19206917 -0.12527107 -0.16549473 0.34825733 0.13781345 0.2654059 0.2114033 0.007139429 0.072448716 -0.057764564 0.026134737 0.04389723 -0.015388123 0.13289413 0.096424304 0.38143545 -0.18185605 -0.3338885 -0.083224274 -0.5884931 -0.041946117 -0.101786174 0.20940496 0.25248644 0.53187907 0.10925987 -0.2079924 -0.28632462 -0.06907268 -0.10153775 0.13641606 -0.26592356 0.42835924 0.22538988 -0.16761863 0.38882563 0.0854441 -0.31717056 0.25588655 -0.0147445435 -0.3031175 -0.39907727 -0.010809064 0.026443617 0.15875706 0.174382 0.0444132 0.40130368 -0.41486877 -0.3785724 0.3126869 0.22960182 -0.07404236 0.19092725 -0.27505392 -0.021526549 -0.062479716 -0.112847105 -0.10391772 -0.011551203 -0.052407548 0.28032157 0.07279316 -0.17707987 0.23097137 0.24335763 0.0026449878 0.508403 0.14738645 -0.03251978 0.07735998 0.11345353 -0.29808414 0.0048055546 -0.3075293 -0.037525747 0.021851793 0.36483237 0.20026435 0.28233835 -0.20060065 -0.25994477 -0.35565084 -0.37514803
binary(==) 0.031113481 -0.3339862 -0.39295232 -0.18427269 0.13015963 -0.21586731 0.2309174 0.09750543 0.06077283 0.0106995385 -0.049753886 0.17708275 -0.20561731 0.30095622 0.29966903 -0.015501343 -0.1001288 0.22247396 -0.15777129 0.012884006 0.050658952 0.145291 0.046089508 0.058573335 -0.027996158 -0.24060151 0.063589744 0.0011534385 0.14561176 0.0037267301 -0.53615177 0.04963256 -0.43532392 -0.17626761 -0.09336472 0.07632378 -0.15589397 -0.44856068 -0.15231422 -0.117473155 0.43196478 0.20746888 -0.35705307 0.086020194 0.009236501 0.19376063 -0.038186356 -0.08365485 0.07382775 -0.10720746 0.5435879 -0.12842914 -0.033566248 -0.21438932 -0.15855207 -0.37648833 -0.09628707 0.054553054 0.10883606 -0.2933087 0.060532033 -0.099030145 0.20421703 0.29048684 0.04099213 0.053863645 -0.0025367949 0.30960062 0.06726184 -0.007789199 -0.24135698 -0.035865266 -0.26278093 -0.10804148 0.20094705 -0.051410697 0.3271343 0.21086977 -0.028821839 -0.12653802 -0.060815234 0.36224988 0.17912 0.11197833 0.006723746 -0.17120728 -0.008501138 0.27704185 -0.33715913 -0.18704541 -0.009302569 0.07777721 -0.14227702 0.44673914 0.08955321 -0.0470139 -0.2602258 -0.021982279 -0.1979352 -0.15574348
index(mapping) 0.025858626 -0.16870968 0.3614901 0.067260206 0.15097219 0.09698552 0.092832476 0.5972828 -0.21485962 -0.4385127 -0.14997353 -0.38572288 -0.11176699 0.0106431125 -0.5289626 -0.06725471 -0.18575506 -0.09472153 -0.21016754 0.17456208 0.41224888 0.75075525 0.21445236 0.09233662 0.07380584 -0.079493694 -0.1770568 -0.6023403 -0.3293064 0.32787192 0.11736171 -0.102736905 -0.6723034 -0.36482224 -0.026607145 -0.3798607 -0.30239972 -0.27714294 -0.4438764 -0.013585437 0.15921466 -0.08503941 -0.11177942 0.18398148 -0.29818547 -0.18887782 0.36744067 0.035328005 -0.18815081 0.6716763 -0.09098537 -0.048526507 -0.28094253 -0.3112898 0.11664414 0.38559175 0.30429044 -0.07058971 -0.0762074 -0.117335424 -0.83991843 0.15210822 -0.30914953 0.96358794 -0.5706131 0.05648123 0.06807203 0.37125525 0.31263998 0.2780093 -0.6800198 0.50741637 0.40333804 -0.45125577 -0.010890379 -0.040536594 -0.11141478 -0.038947403 -0.2054041 0.014836277 -0.11505679 0.30119756 0.16386308 0.5444718 -0.3663523 -0.34568375 -0.6190885 -0.13748252 -0.15149641 0.00559057 0.34894878 -0.24572478 -0.25216252 0.1196538 -0.104840495 0.5924283 -0.22146845 -0.16300796 -0.010659461 -0.028369421
(reference(uint256)):=(temporary_variable) 0.04656582 -0.115657076 -0.119262554 0.28990293 0.5313291 0.031544436 0.2800418 0.093385115 0.19581173 0.18185075 0.34350175 -0.26255134 0.06456368 0.17851329 -0.38473624 0.06761089 -0.32570523 -0.070827276 -0.13230078 -0.035290655 0.08483791 0.31577462 0.074292965 0.1329706 0.024728622 0.14878383 -0.4623779 -0.50566024 0.13160115 0.14830571 -0.3724275 0.16480657 -0.44012782 -0.21964855 -0.4305052 -0.07401542 -0.09075128 0.2006386 0.14220037 0.06649297 0.45571312 0.108062804 -0.0065143304 0.36995542 -0.6291866 -0.3681054 0.24238916 -0.2290259 0.121021785 0.25390086 -0.21452768 0.10442209 -0.016885737 -0.18339951 -0.021074133 -0.17722969 0.019882524 0.45281863 -0.13077189 0.026902748 -0.30033594 0.047885954 -0.29290238 0.3785843 -0.2020947 -0.114371024 -0.23183118 -0.16776367 0.23861478 0.25699285 -0.070780925 0.15658307 -0.13634619 -0.024749732 -0.23083645 -0.47398683 0.13988979 0.42766812 -0.040581588 -0.0005871306 -0.04163982 0.25378528 0.40185875 0.4679402 0.3396734 0.074298345 -0.108286776 0.213898 -0.1468404 0.065150924 0.029907253 -0.2656805 0.023676353 0.24077067 0.24984649 0.18448351 -0.0076745944 0.114561416 0.10378538 0.05083407
binary(!=) -0.23631145 -0.007816226 -0.3652364 -0.033074163 0.015387886 0.22446181 0.29527372 0.22171979 -0.24361624 -0.26074684 0.35967004 -0.20441261 -0.23346658 -0.11917478 -0.17228624 0.032373093 -0.31064892 0.2971732 0.054993056 0.14157876 0.086668834 0.4088703 0.16634682 0.23829022 0.12394134 -0.14308253 -0.5995574 0.22337215 -0.089838505 -0.24712858 -0.3446783 0.10612747 -0.023522347 -0.31179136 -0.13676476 -0.15502732 -0.23857117 -0.64434874 0.11946277 -0.06412213 0.5899461 0.055637795 -0.34610093 0.22832239 -0.17225417 -0.23290125 0.25742483 0.3330951 0.023518838 -0.22888607 0.16370624 -0.14994583 -0.010637147 -0.10029783 -0.22600353 -0.10002224 -0.16721667 0.10561266 0.19711027 -0.26031205 -0.2265696 -0.128708 -0.21465656 0.0032730843 -0.13407347 0.171791 -0.010729629 0.26290783 0.43148336 -0.04221541 -0.42548326 -0.07968609 -0.34397453 -0.20989189 -0.30573115 0.0461218 0.112260364 0.28757608 -0.026798977 0.344811 -0.044210494 0.25544056 0.1682871 -0.070723094 -0.1608495 0.16885181 -0.08262247 0.06787982 -0.08215766 -0.2379394 0.36862144 -0.10215562 -0.0022610887 -0.063276894 -0.2581293 0.110434435 -0.09107891 0.10288514 -0.30073088 -0.09451346
type_conversion(address) 0.33532178 -0.47828287 0.10007357 0.6678964 0.06852764 0.3892262 0.26884174 0.006369135 -0.16480829 -0.052876465 -0.14720224 -0.4849349 -0.26880673 -0.046215005 -0.20633562 0.22667517 0.2003997 0.09768939 0.07303062 -0.07378534 0.08286185 0.15901893 0.29342622 0.017911116 0.22395317 -0.33932623 -0.4379062 0.055113643 0.05665115 0.07226688 -0.3298645 0.06618304 -0.40469214 0.14880176 -0.010446451 -0.29214203 -0.28185436 -0.38615003 0.121670775 -0.26797032 0.1358422 0.1237885 -0.35621196 -0.11816354 -0.3068527 0.2341539 0.07820568 -0.16968325 -0.11181204 0.12919207 -0.28978592 -0.19679384 -0.07867115 -0.27009505 -0.5717718 -0.035924327 -0.006784162 0.40190884 0.5179885 0.051931005 -0.15758683 0.16829339 -0.32177943 -0.06831789 -0.09812716 -0.120436996 -0.06260874 0.22339356 0.33597186 -0.0015138012 -0.3297047 0.14711231 -0.34602493 0.083252825 -0.06624319 0.22121172 0.186598 0.4168761 0.44103825 -0.14566931 -0.1883068 0.49123433 0.31143308 0.21363513 0.009180219 -0.024275837 -0.068040095 0.45117307 -0.02563441 -0.1947491 0.21115297 -0.14499019 -0.1216457 0.024122449 0.04574345 -0.056986045 0.14442937 0.037122324 -0.045429 0.09968901
internal_call(tuple) 0.017917054 -0.067975044 0.3509054 -0.06421812 0.1999268 -0.06430203 -0.32233182 -0.03481687 0.42305136 0.036396846 -0.25185767 0.12211866 -0.1674275 -0.03449498 -0.08072821 0.06890601 -0.34612292 -0.047566224 0.13937947 -0.035358984 -0.17127533 0.24098071 0.76997155 -0.16127177 -0.11152373 0.04622142 -0.21211883 -0.4856105 -0.15123764 -0.27429855 -0.38117516 0.19729534 -0.0658134 0.12561427 -0.11672835 -0.25153935 -0.38561448 -0.29613745 -0.27377403 -0.4750869 0.5646046 0.015416253 0.075404376 -0.11621961 -0.10551709 0.07831579 -0.12032795 0.010407314 -0.08058044 -0.124731675 0.14981662 -0.048658542 0.19943209 0.27250397 -0.10293397 -0.06074112 -0.027728425 0.6426974 0.37369442 -0.03538779 -0.19624443 0.3802345 0.10592368 0.014363677 -0.47406888 0.08813784 -0.010803236 0.5010736 0.033203892 0.23828211 0.15440147 0.13981749 -0.4759042 -0.08747004 0.10747164 0.24698728 0.2595716 0.35105217 -0.114188194 0.11101845 0.25605685 -0.24596466 0.2104288 0.29096484 0.15868202 0.04419258 -0.18858387 0.20426403 -0.09954543 -0.013142597 -0.035914578 -0.37630928 0.18893 0.16698392 -0.076515324 -0.4626382 -0.20235823 0.25012916 -0.054072108 -0.18381618
binary(-) 0.19332959 -0.13507295 -0.25903818 0.037564818 0.70666265 0.22813901 0.18520913 0.18772542 0.11038284 0.15446821 0.0655454 0.239921 -0.050496355 0.19739778 0.05695692 -0.43908072 -0.503187 -0.08318193 -0.12763073 -0.11208909 0.10696516 -0.042907335 0.44901836 -0.053649537 0.02233593 -0.067034945 -0.063435726 -0.24705052 -0.005706237 0.121042475 -0.2036333 0.020484585 0.099056 0.046975795 0.2311608 -0.023671186 -0.12115404 0.028866298 0.13240813 -0.025973046 0.37054273 0.002423993 -0.052090358 0.2701407 -0.33147746 0.025422007 -0.20387232 0.07256915 0.12825072 -0.01271851 0.17710567 -0.020899376 -0.1306793 0.099417776 0.14429419 -0.20458022 0.23586464 -0.012932258 -0.16740918 -0.33961067 -0.10806006 0.14321578 -0.3448819 -0.26094356 -0.6670106 0.25082308 0.09068084 0.54301775 0.010227128 0.081808604 -0.45869818 -0.31702557 0.0667624 0.15447897 -0.17678772 -0.25746822 0.52900404 -0.01816122 -0.11155434 -0.08172954 -0.30234537 0.09889853 0.23252441 -0.09865161 -0.11711998 0.12734365 0.18200107 0.27011833 -0.44179788 -0.10667094 -0.072376765 -0.15219407 -0.2919577 0.20778361 0.1825346 0.2922902 -0.09080163 -0.3468962 -0.36420476 0.09086947
internal_call(uint256) -0.011155015 -0.40791097 0.1903934 0.2938818 0.035665438 0.20914495 -0.15674596 0.11215719 0.05298403 0.14888336 -0.12365029 0.109835014 -0.24928756 0.08461453 -0.45050934 0.37169376 -0.40298828 -0.3181979 -0.36655736 0.08075809 0.14567454 0.12529841 0.48518318 0.18503183 0.2708379 0.21917935 -0.57626283 -0.26605114 0.21704602 -0.3883857 -0.39819145 -0.15335691 -0.20787057 0.16215064 -0.13029987 -0.16735658 -0.2519199 0.012170838 0.18174371 -0.29115066 0.6588386 0.0065788245 -0.15251942 0.031710498 -0.2990639 -0.31279662 0.058267694 0.18541396 0.016402569 -0.05860395 0.3770646 0.38942266 0.16897964 0.049974002 0.008818873 -0.1271348 -0.095315754 0.11742213 -0.1829455 -0.32367626 -0.29062733 0.10406874 0.10934059 -0.017879793 0.09243865 -0.06383034 0.14245859 0.16451901 0.31341752 0.07620623 -0.13173872 0.24994762 -0.053130813 0.2800788 -0.20050094 -0.15972087 -0.053064447 0.2125383 0.12860328 -0.2573281 0.22536497 0.1002369 0.123765886 0.07417822 0.16149746 0.004563624 -0.23053148 0.036633372 -0.15498172 0.47535607 0.12728088 -0.26354033 0.21601416 0.49774587 -0.080850124 -0.03670213 -0.17303777 0.059400942 0.12285712 -0.00040018916
binary(>) -0.003498054 -0.11757654 -0.029979972 -0.27039927 0.0038200347 -0.021332907 -0.22742271 0.3963282 0.10463496 -0.14064488 0.09066795 -0.08143335 -0.052105647 -0.15928479 -0.118370146 0.07471053 0.0034601495 -0.19516173 0.08554445 -0.052111007 0.017168714 0.107518874 0.4381442 0.1733073 0.17121829 0.20434335 -0.36412352 0.0099461675 0.27096054 -0.099872306 -0.32339853 0.0017646416 -0.14933398 -0.085267805 0.19597934 0.20528214 0.06718592 -0.3031109 0.05434386 -0.16085276 0.48401332 -0.10322797 -0.26607576 -0.01364792 -0.323456 0.18063271 0.008215287 0.22436972 0.06467194 0.021726763 0.3321441 0.21651801 -0.09072717 0.021796433 -0.25558415 -0.17929257 0.031856723 0.12704392 0.076408945 -0.061031003 -0.08201747 7.737067e-05 -0.19826655 0.22467816 -0.46589914 0.3283809 0.07152681 0.20025307 0.3223703 -0.16518788 -0.38196698 -0.17628321 -0.13016032 -0.095083036 0.035351038 -0.21274091 0.27881137 0.21367282 -0.2952844 -0.008633536 0.095832236 0.18364848 0.23118977 0.10941117 0.26712242 0.112335645 0.24559009 0.32437935 -0.15090163 -0.3151447 -0.10902163 0.26007402 0.02046292 0.29852358 -0.22493057 -0.15039499 -0.10058656 -0.31720838 -0.02313704 -0.07311497
high_level_call -0.13611262 -0.22957169 0.16772325 0.18114801 -0.042223167 0.31946045 -0.022161318 -0.123772375 -0.0844178 0.26066643 -0.020494267 -0.3922183 0.10588832 0.18647993 -0.10833322 -0.010886717 0.1771502 0.27866268 0.04462211 0.13823536 0.15744025 0.0818433 0.4797547 -0.06923441 0.1882335 -0.23404606 -0.33000216 0.10050136 -0.04405301 -0.1266877 -0.29983234 -0.23406714 -0.48771584 -0.080025986 -0.41205457 -0.19768475 -0.3928312 -0.18230762 -0.21051683 -0.18732306 0.49072227 -0.07411572 -0.51476556 -0.053670745 0.053008534 -0.083911456 -0.25552195 0.056494847 -0.4306951 0.038054362 0.26910162 -0.1977805 -0.112138875 0.33235335 0.10156872 -0.1631346 0.17873226 0.3252894 -0.049964342 -0.34760693 -0.45018813 0.19939809 0.30076915 -0.56867576 -0.13540594 -0.19333568 0.3511957 -0.04227117 0.28819722 0.23147087 -0.117648505 0.17033865 -0.16430506 0.013575723 0.1606734 -0.35476962 0.23452796 0.47938213 0.090739444 -0.10464333 0.27440244 0.4891445 0.047934283 0.060493287 0.25534803 0.06196298 0.31312355 0.07300933 0.014144379 0.3171648 0.08811603 -0.24530953 -0.13941146 0.504417 0.034051515 -0.10716504 -0.009904383 -0.16202778 -0.14893793 -0.26982194
binary(>=) 0.36898884 -0.19269246 0.0004772595 -0.06036557 0.15205978 0.41099536 -0.105684 0.28477028 -0.13392441 -0.0006773378 -0.18057854 -0.2639114 -0.053520612 0.04109797 0.22959019 0.1000605 -0.08370636 -0.24738476 -0.021063184 0.103855915 0.12014855 0.06383602 0.21697578 0.15048054 0.05649414 0.26305866 -0.15913098 -0.34690493 0.0539611 0.054088026 -0.22104818 -0.05186452 -0.21435761 -0.08397284 0.15365274 0.25676015 0.36943805 0.057935458 0.10193933 0.103808664 0.35617256 -0.10063537 -0.3910825 0.063794956 -0.36535415 0.09531947 -0.108094975 0.3188133 -0.07510172 -0.10677975 0.12367873 -0.19865812 0.17434968 0.0020781416 -0.04570352 0.062187497 -0.102301605 0.0987321 -0.20151697 -0.36898825 -0.22503498 0.058025006 0.009008001 -0.4788201 -0.8956269 0.30488342 0.047652375 0.25722936 0.19350177 0.1729475 -0.78944355 0.28805372 -0.15366624 -0.15273485 -0.007535473 -0.14321224 0.45285982 0.23699892 -0.24317232 0.05142142 -0.05453308 0.2297771 0.5486936 0.2152053 -0.030648818 -0.039883774 0.17042969 0.25111884 -0.035907697 -0.22025314 0.02903892 0.32286707 -0.03635889 0.2726309 -0.26946977 -0.021931702 -0.19155349 -0.19730657 0.024956387 -0.11447992
binary(*) 0.015839553 -0.59687054 0.17632361 -0.25217775 0.4458062 -0.3523775 -0.19233222 0.34489295 0.38149545 -0.033494134 0.17572999 -0.08117411 -0.0493047 0.017313303 0.113220975 -0.27151445 0.06342183 -0.042220723 -0.07559765 0.46749893 0.3701763 -0.173378 -0.28701007 0.081896886 -0.12813485 0.16588639 -0.1644832 -0.49107406 0.029050915 -0.009554775 -0.5450257 -0.33649042 -0.4201222 0.34254128 -0.10016104 0.012339755 -0.29860538 -0.036284376 0.38503006 -0.23569268 0.640894 0.019753724 -0.5846638 -0.22412771 -0.4009254 -0.18794256 -0.0443071 -0.018408168 -0.025736965 0.17451589 0.10598242 -0.12717503 -0.09658307 0.1479087 -0.22702233 0.078358695 -0.119363844 0.029028954 0.3054135 -0.25370902 0.42581984 -0.18187018 -0.3865998 -0.4065598 -0.2192134 0.31474975 0.22156027 0.25046533 0.07644572 -0.13354097 -0.024535432 -0.1660036 0.12458297 -0.052899923 0.029510189 -0.27180177 0.3550351 0.059375223 0.047897857 -0.1993781 0.0070863334 0.08869793 0.57163286 0.11874318 -0.047933917 -0.25762063 -0.07856995 0.17305256 -0.26301125 -0.0065636374 0.0042223237 -0.019911686 0.06975577 0.06612035 0.17556904 0.22948451 -0.4102068 0.023089223 -0.105104275 0.18576194
binary(<=) 0.136273 -0.49795303 -0.34386438 -0.16335773 -0.07600218 0.3313004 -0.14567223 0.3606572 0.01890112 -0.024666823 -0.056684963 -0.5666819 -0.3978778 0.04013312 0.020546673 -0.070597604 -0.54982793 -0.2013726 -0.07582169 0.05404486 0.13428189 0.036536146 0.20749348 0.32911545 -0.10326678 0.074507214 -0.23087877 -0.34763968 -0.22508901 -0.22745305 0.076062016 -0.3999568 -0.06898673 0.10681984 -0.07039682 0.3801791 -0.11554687 -0.2551187 0.23204471 -0.03343025 0.6327883 -0.08914128 -0.14360043 -0.0874245 -0.06652893 -0.21804059 -0.094375186 0.01261141 -0.07688662 0.085411094 0.106348634 -0.14281456 -0.13055943 -0.18939477 -0.008972519 -0.11484953 0.018479012 0.17556767 0.17407963 -0.09514083 -0.21056813 -0.12407909 -0.29756892 0.041835763 -0.6557564 0.078269765 -0.24047783 0.3300509 0.3083679 0.22283673 -0.32170603 0.25699538 -0.38891542 -0.24279897 -0.35838675 -0.08642073 0.4962016 0.086560726 -0.36163515 0.047889195 -0.23874174 -0.08565119 0.62721235 0.21277466 0.0065303785 0.26649314 0.142487 0.11650422 -0.24368474 0.13440958 0.2806784 0.2009537 0.045443915 0.24281278 -0.15578102 0.19219224 0.04357859 0.02567631 0.22320816 0.07321243
binary(/) 0.0012169174 -0.07279606 -0.30519667 -0.24051593 0.044080265 -0.26910025 -0.54686964 0.24577764 0.21251032 0.053845868 -0.0041440665 -0.120804 -0.07653891 -0.11090598 0.1101165 -0.3364334 0.0275756 -0.047378257 -0.26160234 0.117434524 0.32672668 -0.12829652 -0.037282273 0.03748845 -0.07035505 0.20171522 0.019256527 -0.2607899 0.083259396 0.1324789 -0.36823976 -0.33847103 -0.4431443 -0.33024347 0.11216146 -0.19945084 0.08365679 0.14923316 0.15313579 -0.19205998 0.37996256 -0.39424807 -0.52435017 -0.2017161 -0.46021914 -0.40747577 -0.0075093824 0.18837266 0.0763036 0.1751966 0.7207841 -0.103409626 -0.19332051 0.049946357 -0.055073705 -0.2997461 -0.11573063 -0.23048899 0.07586893 -0.25048277 0.12774222 0.05314731 -0.090618804 -0.25350988 0.020699663 0.5445903 0.2679469 0.42617005 0.30230126 0.25277576 0.0064105773 -0.13598567 -0.12871878 -0.0016276374 -0.030317014 -0.44574848 0.4628027 0.35763767 -0.55467963 0.09564133 -0.38550162 0.3046916 0.62576276 0.27538633 -0.186408 0.012847857 -0.05611704 0.30191848 -0.36523718 0.050930522 0.23656811 -0.07888157 0.06547389 0.2684926 0.007492231 -0.098511405 -0.3083515 -0.16234916 -0.27160424 -0.22658718
length 0.22323887 -0.21168742 -0.10597176 0.099487714 0.24540249 -0.37063438 0.25213104 0.100515336 0.12147124 0.464381 -0.15153553 0.44706482 0.044824768 0.17266704 -0.022662695 -0.77352256 -0.37899098 -0.09969383 -0.11379312 0.15148917 -0.18797864 0.23894982 0.20181304 -0.04887737 -0.077187784 -0.04589715 -0.05522241 0.04309559 -0.10295928 0.11861033 -0.16847189 -0.2771842 -0.085415736 -0.17576571 -0.17593619 -0.20774268 0.32611015 -0.37352967 -0.19425833 -0.19250701 0.08724175 0.10228249 -0.196047 0.21870397 -0.46969008 0.29959378 -0.078118786 -0.3200323 -0.04550258 0.13859497 0.100523196 -0.04636087 -0.22262716 -0.20513445 0.19013327 0.23611043 0.37864724 -0.27206466 -0.12961602 0.18591996 0.0009649104 0.48884985 -0.27821675 0.1560505 -0.096286714 -0.22343144 0.3458967 0.6579178 0.29598445 -0.028305694 -0.5868188 -0.35070857 -0.079795055 -0.17895254 -0.3627919 0.10949745 0.30876622 -0.07904341 0.1713623 -0.10952251 0.62238497 -0.17961435 0.51956314 0.1952861 -0.049509514 -0.12085364 0.41505966 0.024471495 0.2927073 -0.28608787 -0.118938774 -0.08118731 0.16003 -0.0051656654 -0.049401127 -0.00102793 -0.21569344 -0.017464586 0.031464886 -0.31669214
binary(<) 0.14638565 -0.27537265 -0.22536452 -0.11166344 0.16133358 0.18285385 -0.23385504 0.34854925 -0.13755228 0.1766672 0.06705664 0.09175531 -0.12195597 0.0371029 0.12215056 -0.34277886 -0.13934831 -0.2564664 -0.13160945 -0.016617132 0.24690838 0.11689644 0.1649039 0.18125665 0.0192322 0.27561522 0.033855084 -0.12318716 0.14897081 -0.04927584 -0.107227094 -0.035403874 0.011079093 -0.32609528 -0.2319782 0.0053315028 -0.042209174 -0.48940727 -0.0021346495 -0.04793787 0.16740337 -0.085341185 -0.34403256 -0.16195758 -0.22197255 -0.27409 -0.18533525 0.3317255 -0.0023359377 -0.07938183 0.49170926 0.08387544 -0.19845586 0.11846137 -0.029418657 -0.07743449 0.24538347 -0.2737303 -0.040010106 0.12155091 0.10037608 0.061120078 -0.0961192 0.2028372 -0.42498872 0.26558605 0.065893754 0.31607053 0.13926761 -0.036715433 -0.38957906 0.037108865 -0.04797646 -0.025185606 0.12964478 0.17463599 0.3621903 0.4215454 -0.08763556 0.08238177 0.34711885 0.15334322 0.3976049 0.02144662 0.099069305 0.07982704 0.35972077 -0.035906922 -0.21483414 -0.07618825 -0.109502696 0.1545163 0.01981397 0.03512746 0.04360471 0.1744407 -0.020262554 -0.08351771 0.19920848 -0.18351898
binary(&&) 0.012275998 -0.27893436 -0.23677723 -0.04566068 0.06760811 -0.113417864 -0.056289762 0.41279393 0.3197239 -0.15792087 -0.11521699 -0.265536 -0.052888002 0.018104998 0.09487219 -0.06181319 -0.31775638 -0.08366332 -0.10503587 0.017784163 -0.124172404 0.06371621 0.25468785 0.570852 -0.011375837 -0.07229252 -0.25180256 -0.3603209 0.08157681 -0.11392075 -0.21276245 -0.2598575 -0.05076673 -0.02662319 0.034292642 0.12922518 0.08171191 -0.3646744 0.2477707 0.24799037 0.2727107 0.17577238 -0.26594022 0.05369395 -0.19414628 -0.22826844 0.100201935 0.29007187 0.30073744 0.056669895 0.26535052 -0.15806997 0.1535944 -0.1044051 0.005360924 -0.17380917 -0.032765906 -0.044687245 0.26517418 -0.41262114 -0.022223579 0.20923878 -0.15205154 -0.082948886 -0.5310903 0.07876074 -0.067062624 0.114476316 0.26148677 0.14212334 -0.3862147 0.3123779 0.14946073 -0.06294825 0.3760554 -0.057657234 0.2462417 0.36480328 -0.0054425155 0.2380745 0.34975123 0.32383683 0.44980955 0.21435317 0.057640847 -0.11580797 0.2337495 0.28708348 -0.15340388 -0.19527149 0.080837905 0.27170113 -0.2630214 -0.017787341 -0.27870798 0.21071121 -0.09881329 0.0360867 -0.27571338 -0.07039643
internal_call(bool) 0.16222864 0.11063983 -0.022356357 0.17159666 0.033371218 0.05179973 0.05221583 -0.24440187 0.18632704 0.12932768 -0.21393819 0.10148797 0.34652537 0.27321878 0.3479037 0.20457748 -0.6171092 0.32835615 -0.09741227 0.21490964 0.41551816 0.2616148 0.48475114 -0.10614113 0.14827885 -0.27337 -0.23189297 -0.29485923 0.09560575 -0.11052954 -0.15304887 0.07308172 -0.049315136 -0.6022812 -0.12429619 0.08149377 -0.0042911144 -0.36499923 -0.04856414 -0.056838248 0.3035399 0.07591107 -0.4159172 0.07388474 -0.1483788 -0.35486788 -0.08665307 0.11510272 -0.07927382 -0.0048390934 0.08520861 -0.1393454 0.21638939 0.024631768 0.18535912 -0.09895202 0.05851685 0.3550385 0.32645935 0.07812502 0.08813853 0.1124752 -0.0070235133 -0.07897031 -0.059742577 -0.13177896 0.34299642 0.3591177 0.299774 0.3067138 -0.49699336 0.17838016 -0.20694946 0.32272696 0.32537103 -0.100121535 0.010537822 0.6610726 0.059601206 -0.08217469 0.015358908 0.24316126 0.09624627 0.23594055 0.21134093 0.048917614 -0.4871789 0.2961732 -0.13076304 -0.1494901 -0.36057523 -0.17386658 0.31913063 0.0922634 -0.018515684 -0.4482284 0.1365391 -0.11075972 0.28354374 -0.14649625
solidity_call(assert(bool)) 0.277835 0.15578917 0.07533396 0.041733626 0.17952377 0.51432985 0.1295584 0.20568082 0.06731412 0.21841575 -0.3394608 0.2060128 0.21559994 -0.12771253 -0.08502984 0.5343541 -0.26466843 0.2791132 -0.5249778 0.17598622 0.38557526 0.06255522 0.113627665 0.14289232 -0.14110619 -0.0011857352 0.106793426 -0.2586445 -0.07920206 0.01831826 -0.9893106 -0.36865008 -0.32865846 -0.21937832 -0.32795426 -0.2238651 -0.37104654 0.059944052 -0.25815508 -0.1934162 0.035369426 -0.43956318 -0.31595293 -0.0542874 -0.20917353 -0.16157387 0.27931154 0.57973015 -0.022413217 0.49304107 0.13488196 0.10434109 0.24251045 -0.25440526 -0.16640154 0.6243301 0.25005603 -0.2530829 -0.25073743 -0.76535296 0.13276754 -0.011778415 0.20900078 -0.35763398 -0.36791793 -0.18035065 0.41423947 0.40188262 0.09290749 0.80806357 -0.6264594 0.13614091 -0.14085615 0.13878575 0.30981606 -0.5204259 0.24094748 0.28680623 -0.009702814 0.17561246 -0.30770397 0.14460555 0.12958479 0.20193623 0.08836285 0.22736076 0.16831602 0.029379167 0.34653887 -0.10082545 0.9098877 -0.27279523 0.04838752 0.034177814 0.4534427 0.42030975 -0.634934 -0.14430155 -0.42432627 0.33314237
(local_solc_variable(memory)):=(temporary_variable) 0.068537876 -0.03513236 -0.32292494 -0.0535478 0.25097057 0.011131635 -0.35300073 0.18793948 0.14882067 0.2828962 -0.21372403 0.13839212 -0.047237877 -0.08052446 -0.043312125 -0.2821386 0.1292756 -0.22445902 -0.10042411 0.13675061 0.24408986 0.776106 -0.10537826 0.02686446 0.3589894 0.022559144 -0.119650766 -0.43892568 0.42133692 0.17833449 -0.33950472 -0.09841171 -0.29130155 -0.21080542 -0.1686097 -0.078951575 0.06514083 0.04423382 -0.05826513 -0.3095445 0.4330388 0.30331805 0.28088725 -0.2941889 -0.2868237 -0.3243434 -0.15741311 -0.2583267 0.19482102 0.13097584 0.3960298 0.027215576 -0.26315504 -0.22316757 -0.22012565 -0.6116458 0.022565752 -0.07454107 0.24268903 -0.026881913 -0.21441503 0.4293548 0.1150473 -0.3576294 -0.5128499 -0.050733265 0.19671908 0.15742663 0.80869794 0.5691093 -0.5328478 -0.22504207 0.25633824 -0.11652683 0.010496934 -0.123057164 0.1379897 0.080797546 -0.011414349 0.015157757 0.33728388 0.27524576 -0.19208162 -0.2144772 0.13596456 0.077191785 -0.25279468 -0.120807394 0.005314096 -0.07749797 0.23027207 0.019604221 0.24436998 -0.08466399 0.5997615 0.017426452 0.31083712 0.3848099 0.21881819 0.03529018
(local_solc_variable(default)):=(constant(uint256)) 0.27963793 -0.21878207 -0.0941769 0.36851767 0.26878175 0.115906395 -0.39772555 0.16423087 0.010009813 0.010746765 -0.06034242 -0.015539524 -0.036702216 0.06750496 0.02154655 -0.37345684 -0.17125992 -0.13780396 -0.060494058 0.19477655 -0.12631366 0.3377275 0.100292735 -0.044774327 -0.0024028807 0.06888673 -0.34798598 -0.26766104 -0.09247122 -0.062139127 -0.20650311 -0.28661698 0.05080361 -0.07260411 -0.22379184 -0.10480929 -0.12609684 -0.38967264 -0.17982918 -0.21521497 0.33288854 0.040279042 -0.08252041 -0.049686033 -0.11858161 -0.27519047 -0.43422028 0.31961486 0.102793105 -0.12767747 0.4827268 -0.056852542 -0.33876717 0.26068515 0.041205294 0.028429527 0.190956 -0.20246549 -0.026950471 0.077127166 0.14556271 0.1962334 -0.092171244 0.12630124 -0.65295607 0.17479551 0.5430918 0.31974986 0.16381584 -0.09396713 0.011630123 -0.03870354 0.019416176 -0.20714764 0.06141936 -0.0099706575 0.056894492 0.5700144 0.07400442 -0.55993176 0.35280883 0.24027708 -0.061587885 -0.061674774 0.020735826 0.007056768 0.33404556 0.0673429 -0.35719216 -0.17224063 -0.10585405 0.3277094 -0.12072584 0.15139046 0.14935435 0.0118670985 -0.12165601 0.17006904 0.057682034 -0.14909732
(state_solc_variable(uint256)):=(temporary_variable) -0.16209276 -0.1821909 0.19671619 0.29501757 0.4489469 0.33410096 0.28375587 0.3577237 -0.05769911 0.27921876 -0.12116948 -0.114111364 0.19464993 -0.09448322 -0.3008478 -0.17288224 -0.1485213 -0.028392032 -0.05030675 0.24075311 0.31891307 0.33706024 -0.15512736 0.25637212 -0.2153575 0.3515514 -0.32900706 0.076990426 0.16011989 -0.5143324 -0.56289023 -0.1477088 0.05356804 0.1914388 -0.13547176 0.17102364 -0.47537163 0.038191017 0.16233315 0.09828137 0.33351067 -0.034857236 -0.23337336 0.23617686 -0.35408574 0.1420549 0.2775082 -0.027026266 0.108792424 0.40030172 0.10679938 -0.17670184 -0.12248881 -0.07897997 -0.27432084 -0.19154093 0.124398224 0.2555904 0.23155089 -0.009212084 -0.0832145 0.095281616 -0.18670554 -0.19637965 -0.19980235 0.19896784 -0.03897937 -0.20110483 0.16107652 0.43646154 -0.06691362 0.3695896 -0.2474091 0.06756139 0.116688654 -0.45330724 0.15236808 0.21181682 0.060639206 0.045243032 0.11316582 0.057115015 0.38398027 0.9266759 0.09813247 0.0056662546 -0.035589054 0.25112346 -0.3048322 -0.20892029 0.038285747 -0.46580163 0.41458723 0.42587185 -0.11870564 -0.21558483 -0.27337536 -0.19336191 0.12052889 -0.29726285
index(address) 0.030661145 -0.2865293 -0.31951448 0.39008498 0.69711334 0.57264084 0.09745041 -0.12524195 0.10492387 0.11316847 -0.06919235 0.17064296 -0.02498334 0.02463077 -0.32262132 0.42899033 0.050364535 0.36144292 0.17085136 0.35796556 0.3627987 -0.06887446 -0.09625015 0.07636105 0.17009479 -0.089838706 -0.16645148 -0.33644852 0.16837347 0.16661628 -0.20987283 0.18167697 -0.14957587 -0.30018264 -0.097134955 0.08696721 0.05130336 -0.47915336 0.23872922 0.09621241 0.19859657 0.55778384 -0.11230093 -0.34444448 -0.35559034 0.19659099 -0.01978297 0.13110334 -0.086750284 -0.05304615 0.07258755 0.1357845 0.00050465966 0.16738997 0.22832976 -0.01756455 0.04075063 -0.05261776 0.08103774 0.2205786 -0.012911825 0.3883867 -0.6159547 0.42521137 0.050813228 0.063189365 0.45274293 0.11397414 -0.035938412 -0.026835302 -0.5073028 0.12850514 0.03700523 0.14508991 -0.2550933 0.47686392 -0.16509588 0.40821806 0.3290014 -0.2138108 0.4322409 0.09048782 0.093047135 0.33580554 -0.3680278 0.13786899 0.18101609 0.22778755 -0.39578736 -0.21083204 0.5505044 -0.23623598 -0.25663483 0.2510882 -0.010852069 0.19257961 -0.08771228 -0.10013553 0.0068901707 -0.4450762
solidity_call(require(bool,string)) 0.11062729 -0.014924148 -0.26312903 0.052450813 -0.45733055 0.16391869 -0.012221321 0.6727957 0.25977862 0.16368729 -0.010530533 -0.44308826 -0.07582298 0.4613037 -0.07608974 0.26227206 -0.09064815 0.14218013 0.034489203 0.13659921 -0.5603148 0.26531312 0.52805233 0.1215716 0.14182724 0.20474464 -0.5218817 0.20246558 -0.024027603 -0.116783075 -0.67420727 -0.11254505 -0.14094773 -0.19273517 -0.08482917 -0.16583933 0.024750879 -0.8185798 0.19638155 -0.104417376 0.3555961 0.0963898 0.06365712 -0.1572029 -0.24309862 -0.053883396 0.24457996 0.09698777 0.102573514 -0.33766553 -0.0454708 0.12108763 -0.1599143 -0.029417308 -0.31701759 0.15125638 0.014591331 -0.21155217 0.47590387 -0.0048429985 0.29136673 0.2848939 0.08931976 0.049172495 -0.18528806 0.024710549 -0.0970155 0.14049125 0.3147891 0.37484375 -0.5868251 0.24319871 0.3249875 -0.023136837 -0.2460808 -0.04153643 0.12958132 0.14819387 0.1312254 0.25139406 -0.43046254 -0.032180253 0.028199201 0.32964933 -0.14767693 0.087552086 0.27506953 0.16003983 -0.0719363 0.10409725 -0.010392124 -0.053739082 0.030833498 -0.13788655 -0.008191886 -0.26068783 0.23984241 0.0071343896 0.06348674 -0.053555846
index(bool) 0.27530798 0.067089215 0.20070463 0.013543175 0.51266074 0.22949657 -0.15061557 0.26336545 -0.07529925 0.20830289 -0.13340682 -0.052900277 0.32549027 0.3660095 0.03501605 0.26404145 -0.5649442 0.15719956 -0.12707965 0.36245802 0.7073459 0.4061094 0.29792193 0.469944 0.24786763 -0.26463777 -0.29755253 -0.033941805 0.07321899 0.18102272 -0.012316324 0.15121491 -0.08955477 -0.33374435 -0.3620026 -0.062337425 -0.19300878 -0.5144125 0.19427027 0.055400617 0.0040297117 0.51734424 -0.18723868 0.3585189 -0.4517546 -0.2010036 -0.06118272 0.36168566 -0.12769666 0.18954636 0.11395052 0.22395146 -0.037872802 -0.03056734 0.5774026 0.42556512 0.17583396 0.57236135 0.26538768 0.108866535 0.03648264 0.13730076 -0.23107207 -0.15203609 0.34452406 -0.3036509 0.2022667 -0.060567237 0.041798018 -0.021413362 -0.9584331 0.1720764 -0.25588447 -0.05720339 0.20857134 0.32122257 -0.1266221 0.6598465 0.2828582 0.03171944 0.047770005 0.20002298 -0.17156965 0.6370912 -0.40445107 0.037623312 -0.35530072 0.21870685 -0.37821487 -0.45215744 0.0008905591 -0.060248498 -0.010200497 0.019492572 0.22482845 0.3788484 -0.21776518 -0.23889153 0.15786186 -0.34735715
type_conversion(user_defined_type) -0.1782482 -0.62123936 0.4874888 0.3108697 0.016189834 0.28290105 0.037695665 -0.24775422 0.16035739 0.41609913 0.031170478 0.03638193 -0.020782135 0.17287253 -0.0056960317 0.41743973 0.32858315 0.2476019 -0.22476695 0.19597608 0.13920948 0.32020578 0.41563967 0.19885218 0.053150635 -0.11159704 -0.36136168 0.001493004 0.05352796 -0.09846178 -0.27878794 -0.17098154 0.055597983 -0.29738712 -0.3105868 -0.4304187 -0.08429598 -0.52650577 -0.19406205 -0.36432374 0.32839358 0.17737229 -0.73075724 0.05087413 -0.29670292 0.27820206 0.036598753 0.2872878 -0.20432998 0.16135043 0.24441116 0.103239514 -0.3003879 -0.04101275 -0.52573574 -0.01405418 0.081711136 0.5715271 0.1153899 -0.18652593 -0.31160924 0.28628433 0.21833242 -0.07756371 -0.3511272 -0.029777825 -0.36157948 -0.03993205 0.21915413 0.37175873 -0.22859313 0.10458414 -0.11448048 0.22636935 0.29987213 -0.08235448 0.038822845 0.12043257 0.19479159 -0.37999904 0.18699475 0.07896271 0.11853919 -0.18281128 -0.29724267 0.48564494 0.015338927 0.017235639 0.19145468 0.08196236 0.042006433 -0.31232113 0.071832374 0.46127325 -0.32592955 0.036168087 0.09130948 -0.20505005 -0.12845506 -0.14897485
(temporary_variable):=(local_solc_variable(default)) -0.11381304 0.060954604 0.1067511 0.2565026 0.17939618 0.23584633 -0.35217384 0.39277318 -0.10539394 0.025324149 -0.20852982 0.3139903 0.32265517 0.3315516 -0.17806084 -0.6283686 -0.43730918 0.30587918 -0.17411909 -0.08074344 0.07604332 0.1326789 0.1338846 -0.20548335 -0.268693 0.19556664 0.085241646 -0.26261863 0.1631335 0.159879 -0.13498385 0.106433585 0.13502894 0.0054487763 -0.20225157 -0.17955106 0.13024127 -0.43814677 -0.12768248 -0.04909386 0.4056092 0.11357326 -0.040830046 -0.2155171 -0.21513486 -0.30237705 -0.07163484 0.177859 -0.011695153 -0.09956495 0.4562435 -0.10093826 -0.2882122 0.0606855 0.07016794 -0.24583244 0.13641028 -0.1678818 -0.15232238 0.1357973 0.15427904 0.4510521 0.1485189 0.04377289 -0.48441458 0.38401982 0.42639297 0.32895815 0.3002136 -0.00044854873 -0.40214702 0.0594017 -0.09992135 -0.024689063 -0.24260484 -0.04284225 -0.12562227 0.13814148 0.070404574 -0.2580674 0.49835953 0.15110976 0.051674858 -0.23811892 0.2346521 -0.020382198 0.54749036 0.091367446 -0.2783096 -0.31297147 0.41531911 0.03965547 -0.0795901 0.16518798 0.00056064536 0.11381365 -0.049962275 0.065379195 -0.19838244 0.04670476
(local_solc_variable(default)):=(reference(uint256)) 0.03671567 -0.19386597 -0.2860805 0.29507926 -0.121411614 0.059388023 -0.08180188 0.24701871 0.08340996 0.21962957 0.14427559 -0.24628046 -0.06961773 0.20787784 -0.036465302 -0.04767919 0.006718243 -0.1553382 -0.12257164 0.2222171 -0.14879788 0.30271938 0.19023776 0.08752579 0.011364349 -0.0035647515 -0.3912787 -0.14238723 -0.27531374 0.26502016 -0.29432848 0.17799746 -0.122650504 0.0008604262 -0.1901734 -0.036733955 0.10478485 -0.13971294 -0.021940848 -0.048953287 0.2954612 -0.1436986 0.34315324 0.12784132 -0.06027981 -0.15814129 -0.12234308 0.18962674 0.23838788 -0.20096849 0.19139963 0.12955008 -0.2850168 0.064839035 -0.11663343 -0.14549439 0.0839696 -0.16065317 -0.1557041 -0.029472638 -0.39915255 -0.09412173 -0.082735114 0.33557117 -0.46189943 0.01917174 0.10713556 0.41681525 0.0008330075 0.073175624 -0.24539079 -0.48595738 0.31631678 -0.038862128 -0.26134115 0.050950993 -0.008734865 0.828652 0.17609487 -0.3307899 0.31549633 0.074221045 0.21188542 0.18580003 0.22490218 -0.0459306 -0.0009784405 0.26167923 -0.31247345 0.1097044 0.17901237 -0.027051138 0.13566212 0.110908255 0.06151601 -0.13826004 -0.474611 0.044885147 -0.025515204 -0.15101738
(state_solc_variable(address)):=(local_solc_variable(memory)) -0.12455325 0.018634118 0.20101759 0.2076864 0.008040664 0.4339956 -0.13571262 -0.10843125 -0.5627741 0.058262575 -0.14683996 -0.0979521 0.033630937 -0.066762246 -0.069226936 -0.2693021 0.25259873 0.37270603 -0.007577327 0.2047962 0.47943643 0.06441015 0.2385195 0.2243852 0.0201807 -0.2157716 -0.23848101 0.37043995 0.10153049 -0.40424925 -0.63453126 -0.13979135 -0.43522316 0.5685936 -0.22261894 -0.20503922 -0.033825338 -0.58820575 0.38596812 -0.21229531 0.31913275 0.026283473 -0.75511515 0.15342514 -0.3139404 0.33140743 0.4104962 0.48039597 0.0030730972 0.24150623 -0.24776047 -0.5723337 -0.37520337 -0.33082992 -0.40848428 -0.121650115 0.15666047 0.11688055 0.14332736 -0.02429263 -0.46655333 0.57511824 -0.23860344 0.16258168 -0.07469045 -0.024105405 -0.11215041 0.23146695 -0.14381815 0.64450604 -0.5095698 0.36222816 -0.07932429 -0.38324928 0.36954585 0.06016312 0.059935715 -0.02711432 0.37850893 0.24204257 -0.09722234 -0.13009766 0.10639475 0.30646744 -0.12450368 -0.00903596 -0.42311192 0.27756318 -0.3118909 -0.5522633 0.71977705 -0.3797289 0.59335643 0.39763203 -0.5471142 -0.3395413 0.06499795 0.1396543 0.34882262 -0.2658802
(reference(uint256)):=(local_solc_variable(memory)) -0.038295537 0.019426566 -0.3084972 -0.03016392 0.1805212 -0.3725617 0.043841418 0.03725618 -0.19965267 -0.0086384965 0.6322106 -0.24302766 -0.076826304 0.3302208 -0.23936726 -0.110422984 -0.20293304 -0.06193138 -0.19263367 -0.14146276 0.23436937 0.18091188 0.62978566 0.021880588 -0.13482931 0.025349975 -0.17229103 -0.0411341 0.21430792 0.12137491 -0.20274319 -0.016286075 -0.62037545 -0.008845029 -0.19131637 -0.5510498 0.1951251 -0.27185005 0.31641996 0.275511 0.4068632 0.10045989 -0.066587575 0.26726675 -0.3645733 -0.15483838 0.30978042 0.18436933 0.1048165 0.29558477 -0.3864999 -0.038867313 0.06860579 0.09770504 -0.2328502 -0.30451655 -0.35561946 0.29137716 -0.25518146 -0.055029854 -0.43566486 0.48189628 -0.27937466 0.37624037 -0.08628875 -0.3392995 -0.10904872 0.16212109 0.29203668 0.5612964 -0.5283556 -0.15158312 -0.052597318 -0.33731806 -0.11393573 -0.11520677 0.07448876 0.20722355 0.33143377 0.023011336 0.09924786 -0.18282993 -0.16783799 0.21237428 -0.13735192 0.1693156 -0.1993448 0.3251157 0.20500055 -0.07794594 0.33669046 -0.26265687 0.09735739 0.120620996 -0.2784795 0.21020615 0.11523854 0.07827381 0.23108466 -0.033921596
unary(!) 0.06780015 -0.29879153 -0.2810788 0.09376543 0.023978759 -0.22543386 0.27067575 0.2740919 0.1897224 0.3044948 0.3736873 -0.12136046 0.18621247 0.48733622 0.0049099186 0.3317508 -0.51237226 0.33433953 0.36902484 0.0001309034 0.4595396 0.29927307 0.29232386 0.089971304 -0.11020518 -0.0688581 -0.15552205 0.02076213 -0.29529598 -0.35536414 0.10377217 0.022570848 -0.16828029 -0.16869193 0.13501856 -0.050825074 -0.088226505 -0.23783953 -0.0064494987 0.028685212 0.3910039 0.13273832 -0.21568237 0.30049804 -0.59283763 0.017622998 -0.13357422 -0.25019994 -0.30236384 -0.02788063 0.46634385 0.1293279 0.09155264 -0.3214193 0.17918824 -0.1545509 0.088328116 -0.07504458 0.3156796 -0.1438379 0.041308817 0.058513455 0.011320612 -0.2472823 -0.40862298 -0.20859689 0.2653523 -0.24052168 0.32641083 0.22203521 -0.5498132 -0.017974721 -0.03641396 -0.1426843 0.3001244 -0.11453104 -0.4319258 0.62471324 0.16465923 -0.07499418 0.14993997 0.17784739 0.29484835 0.17248563 0.09221679 0.07790648 -0.031704 0.019758638 -0.094374545 -0.25250542 -0.096108794 -0.25115806 0.22785182 0.31011778 -0.53167844 0.100623354 0.20407544 -0.0015603864 0.18471695 -0.2587995
binary(||) -0.3270586 -0.20617728 -0.44039777 -0.4661403 -0.0017722896 0.029862493 0.075121105 0.06399311 0.34029898 -0.10142833 -0.25116998 0.08040872 -0.07897366 0.31885597 0.21075648 -0.013746412 -0.16448823 0.17875193 0.10199222 0.013500572 0.31343797 0.0985934 0.5073365 0.020959964 -0.047888905 -0.2790171 -0.25465974 -0.102379344 0.12098679 -0.013431025 -0.5652086 -0.0002828845 -0.33454105 -0.40983784 -0.16418359 0.20853142 -0.04875248 -0.60185516 0.24553552 -0.16032149 0.10811914 -0.20096412 -0.14806584 0.43163264 -0.041352905 -0.07921642 0.082684234 0.25867587 0.15397172 -0.023482773 0.66192627 0.10002798 0.1539543 -0.17191306 -0.016561294 -0.17129509 0.104831144 -0.021881174 0.19458641 -0.1548368 0.06698028 0.14510389 0.1298419 0.3816581 -0.13955322 -0.40048534 -0.22007234 0.28979653 0.019089585 0.4134041 -0.34149465 -0.09248691 0.27344033 0.002683626 0.013754302 -0.24302194 0.2014226 0.18186572 -0.08749797 0.3135486 0.10297621 0.602304 0.38136786 0.013977221 -0.30067837 0.008532948 0.13024014 0.038841587 -0.07404647 0.07386514 0.09098827 0.3951353 -0.24535708 0.5110513 -0.10611259 -0.15174782 -0.08567756 0.23444708 -0.4617889 -0.33009705
type_conversion(uint256) -0.04790109 -0.585347 -0.10004252 0.047985245 0.3330985 -0.21193136 -0.07279852 0.11302481 0.25820836 0.07021729 -0.16355324 0.39097667 0.055492606 0.19188076 0.27413687 -0.04341184 -0.16756602 -0.063829295 0.018897887 0.049835935 0.16238342 0.3164399 0.1077305 0.10395723 0.056489546 -0.20219156 -0.5783945 -0.10372233 0.40146792 -0.09787647 -0.33390105 -0.23192853 -0.2755318 0.25221065 -0.06454516 -0.3182424 -0.15679003 -0.1675984 -0.05475388 -0.3470152 0.11452627 0.08137999 0.020757645 0.021017294 -0.22427298 0.00085716933 0.022231268 -0.58423924 -0.06136489 -0.10727171 -0.020839907 0.25683957 -0.07658987 -0.051842432 -0.5951186 -0.22070393 -0.42182165 0.21735132 -0.051279247 0.13896005 0.06390677 0.14377896 -0.2261392 0.0032873119 -0.077797756 0.3715019 0.019020785 -0.045985144 0.496521 0.031120563 -0.15585889 -0.06333102 -0.0073889038 0.15519488 -0.044685543 -0.47604212 0.53881675 0.14926024 0.30619133 -0.13628113 0.093104795 0.090353236 0.36312264 0.14127266 -0.037173066 0.40849984 0.2000491 0.23750383 -0.45248204 0.19104707 0.21390124 -0.4246128 0.4598652 -0.09361311 0.43503252 -0.04641409 -0.08510189 0.01670029 0.16265813 0.014769489
(reference(uint256)):=(constant(uint256)) 0.17194656 -0.5094174 -0.026028914 0.35239828 0.96518314 0.012174487 0.0709799 0.22724539 0.1435087 -0.33372763 0.35990694 -0.036315173 -0.13147241 -0.05130187 -0.23070377 -0.17591274 -0.1655454 -0.3216881 0.28944483 -0.15890802 -0.058323245 0.23832221 0.36409682 -0.15668367 -0.14704822 0.07289178 -0.579456 -0.13060422 0.21152462 0.20161644 -0.21127461 -0.13386826 -0.2967718 -0.12462514 -0.41575357 -0.6255151 0.10232904 -0.21389382 -0.07374778 0.06730677 0.36395955 0.081845224 -0.11981829 0.48752794 -0.67539835 -0.15654069 -0.1429907 0.09520201 0.096045524 -0.14866579 -0.4915588 -0.01494245 -0.22578117 0.14472628 0.36866477 0.29034078 -0.17536932 0.20827591 -0.33790824 0.36284712 -0.019228173 0.08578387 -0.10743824 0.77072465 -0.40896654 -0.047227666 0.23649843 0.08130538 0.16134097 0.10333369 0.12683259 0.22191177 -0.1295729 0.052134536 0.1432997 -0.15987769 0.18993615 0.64651686 0.123618945 -0.50818014 0.096853666 0.06805075 0.1595422 0.46343935 -0.083018236 0.0948407 -0.00085827237 0.39444855 -0.2742061 -0.04516723 -0.28917572 0.042831175 -0.33739054 0.10668981 0.22527233 0.1686318 0.060595386 0.39856088 -0.08600763 0.021110373
(state_solc_variable(bool)):=(constant(bool)) 0.05067495 -0.22308286 0.23609392 0.048473857 0.3443892 0.67684114 -0.109508306 0.75391024 -0.18306978 -0.12553857 -0.10623823 0.16132638 0.40684932 0.020560648 -0.21442726 0.15612599 -0.21974243 0.4037975 -0.15030216 0.29759845 0.79053617 0.20575696 0.317162 0.59780836 -0.21484275 -0.29735014 -0.4879496 0.6038075 0.03126508 -0.4600673 -0.49483028 -0.2647108 0.12751272 0.4997135 -0.12882856 0.076496616 -0.40822735 -0.35505214 0.02774078 -0.021312252 -0.31674302 0.0235535 -0.49950883 0.2897433 -0.06832779 0.04822113 0.056824133 0.64404434 0.16224709 0.39327553 -0.045195796 -0.5560263 0.11335408 -0.08048847 -0.0015900121 0.56099343 0.47220036 0.45004272 0.45683226 -0.1407861 0.04519791 0.37345052 0.020530773 -0.255417 -0.25692636 -0.26345012 -0.042401295 0.010528418 0.045075364 0.46483764 -0.5659315 0.55394375 -0.23346269 -0.0490947 0.5584824 -0.30695027 0.11896485 0.3568557 0.044435237 -0.05253844 0.2702464 -0.1814736 0.3373178 0.96577215 0.0074734674 0.09401215 -0.24731225 0.46836817 -0.4409013 -0.17322356 -0.010591601 -0.10826062 0.54735136 0.26653853 -0.66247916 -0.36075252 -0.034694016 -0.5341608 -0.01875547 -0.51519036
(state_solc_variable(uint256)):=(local_solc_variable(memory)) -0.22619751 -0.08182999 0.13061129 0.12606426 0.120173566 0.095689625 0.042115178 0.2958486 -0.46589553 0.08250814 0.09143125 -0.10479543 0.051708087 0.010771704 -0.20702878 -0.2451804 0.03790556 -0.049110707 -0.13392906 0.17912641 0.48990244 0.20801857 0.28870496 0.20151287 -0.29136634 0.20978197 -0.15041527 0.481138 0.24017209 -0.5208224 -0.47918007 -0.35695794 -0.13975853 0.35655034 -0.022002371 -0.14158982 -0.23111148 -0.40857175 0.4022556 0.25306922 0.3509972 -0.016342413 -0.41181007 0.22338027 -0.20959294 0.33717048 0.32791507 0.43768358 0.09182358 0.42080247 -0.009906044 -0.3806737 -0.057246465 0.07311957 -0.5065949 -0.24779521 -0.0942323 0.20008636 0.16465141 -0.13866372 -0.30988663 0.50503397 -0.19595817 -0.16728534 -0.21302721 0.002490725 0.018438213 0.115294136 0.18799481 0.74621254 -0.45559573 0.13179274 -0.17048801 -0.22022966 0.20866114 -0.13817123 0.16840635 0.098455876 0.40500125 0.094212234 0.217836 -0.2798465 -0.029618539 0.7072283 -0.28970134 0.14133999 -0.18867242 0.3739613 -0.012821917 -0.33685333 0.3021681 -0.4856997 0.47276232 0.37434208 -0.6332716 -0.18535055 -0.18578975 -0.18832149 0.25649622 -0.30551305
(reference(bool)):=(constant(bool)) 0.23362647 0.11030831 -0.040208038 -0.46789196 0.5217123 0.023793565 -0.28554988 0.25351647 0.3685035 -0.12865728 0.33466998 0.050723456 0.5080609 0.34337577 -0.46162298 0.041272536 -0.4535242 0.2597462 -0.07569057 0.095861785 0.845261 0.48835883 0.60746485 0.3628531 0.047240276 -0.43791363 -0.455881 0.00089310494 0.18448524 0.114665605 -0.050159078 0.048307817 -0.22965088 0.10562259 0.09444703 -0.21734452 0.06826225 -0.5305125 0.14198309 0.04143339 -0.4718487 0.39208186 -0.5038528 0.41752103 -0.30093318 -0.45340416 0.018901348 0.54378045 0.32584405 0.19875135 -0.28237325 -0.17840295 0.36771026 -0.21000981 0.86491257 0.7605278 0.12614626 0.43717772 0.48496968 0.05826516 0.45831558 0.14143662 0.037113 0.10078924 -0.24043624 -0.80685 -0.03752729 0.12077283 0.14845471 0.036962595 -0.6367629 0.18218511 -0.4885438 -0.21595283 0.25230417 -0.058366466 -0.04149036 0.46822187 0.12376576 -0.15576868 0.2697601 -0.043551188 0.06925132 0.60231096 0.091815606 0.159753 0.056838088 0.50668967 -0.25904766 0.048985932 0.009991294 -0.0028845442 -0.032591198 0.031230329 -0.24273916 0.00576265 0.33218744 -0.38982618 -0.40084317 -0.4218656
unpack -0.5313851 -0.6131567 -0.09455284 0.061626047 0.2453884 -0.09176534 0.19015348 0.21912703 0.74738806 0.08953153 -0.13590759 -0.5987798 -0.10528869 0.2565299 -0.0679137 -0.00079947495 -0.6228261 0.36109656 0.3688613 0.48022902 0.16997008 0.14092593 0.6764443 0.20639122 -0.2865764 -0.13742259 -0.24609606 -0.18411393 -0.08838951 0.05199974 -0.33247 0.016978564 -0.48860094 0.3299347 0.2856653 0.068772316 -0.19063744 0.16223963 -0.17456385 -0.19295348 0.538094 0.030262869 -0.36087218 0.13957547 -0.23526312 -0.30151936 -0.034072537 -0.19635947 -0.37363663 -0.20012276 0.30952662 0.047112364 -0.21008645 0.29789996 -0.59149 -0.35411742 0.19904214 -0.14502162 0.35728192 -0.27264556 -0.124596134 0.31780443 0.14059396 -0.009812444 -0.3524128 0.08054497 0.39851207 0.08043946 0.666472 0.10050176 -0.11261295 0.24736078 -0.20710747 0.12188505 0.075823344 0.31794167 0.6483127 0.11985074 0.090537734 -0.10518991 0.26361582 0.7039263 -0.45366147 -0.068923876 0.2488711 -0.0966858 0.03683797 0.041911107 0.2491171 0.6336315 0.17470309 -0.053041026 0.44868556 -0.3629676 0.3577553 -0.260455 -0.060972963 0.16256659 -0.321845 -0.3135556
binary(**) -0.3504615 -0.5685752 0.30680332 -0.30470863 0.3818039 0.24492465 -0.017862743 0.27337536 0.058618627 -0.08619408 -0.07974514 0.2468505 -0.12703107 0.038467713 0.069470026 -0.15265903 0.21054527 0.06870302 0.01042666 0.11725145 0.6728216 0.2183353 -0.18427579 0.21731539 -0.016424423 0.26155618 -0.71535236 -0.18502188 0.3254828 -0.42191923 -0.6641352 -0.43559143 -0.30081213 -0.041679207 -0.16835172 -0.5869435 -0.18861485 -0.34034657 0.1492326 -0.34279057 0.40760195 -0.063371226 -0.48420924 -0.028328875 0.022659933 -0.2671018 -0.66184336 -0.050227977 0.17393455 0.105759434 -0.10169757 -0.52918214 0.082171254 -0.09517158 -0.88966304 0.37728867 0.18132266 0.14500801 0.06376497 -0.033797007 0.39747614 0.03484457 -0.384706 -0.22709021 -0.14774391 0.26924992 -0.034317635 -0.039319314 0.037389368 0.10000305 -0.05190726 -0.26243162 -0.00027011085 -0.0022850272 -0.1209774 -0.42739233 0.4518948 0.06145946 0.1590511 0.057881545 -0.15343228 0.06558941 0.37868276 0.18970627 0.07531474 0.13355404 0.0730365 0.3616491 -0.55840427 0.017767275 0.30605495 -0.048273202 0.07699145 -0.089107975 -0.08032462 0.07980344 -0.7190408 -0.120353356 -0.19851421 0.08906213
(state_solc_variable(address)):=(solidity_variable_composed(msg.sender)) -0.31837565 -0.3680939 0.63396317 0.61123335 0.35738298 0.49786744 -0.30045214 0.14729491 0.024177292 -0.1422595 -0.13370621 -0.020318706 0.14333919 -0.057955686 -0.30524904 -0.1027521 0.23745175 0.39238653 0.09721108 0.2721405 0.41091725 0.25234163 0.06119623 0.113642134 0.013730955 0.008747671 -0.22579697 0.3990722 0.28604323 -0.21212505 -0.5090074 -0.45407152 -0.04722674 0.11767751 -0.27980933 -0.22758847 -0.28818655 -0.31801158 0.24749596 -0.18788552 0.22241363 -0.0002796195 -0.6506464 0.26556662 -0.30204895 0.59648985 0.44913825 0.023758398 -0.11294412 0.3790168 -0.3929671 -0.4495569 0.030480556 0.035383996 -0.23226276 0.117692284 0.16905828 -0.13343413 0.006229386 -0.01289991 -0.07185508 0.09288761 -0.040483397 -0.039642103 0.25026974 0.058686893 -0.5286109 0.2209708 -0.15806158 0.5045128 -0.35209027 0.42663443 -0.22237724 -0.06346425 0.31635123 0.15224248 0.27711508 0.12560563 0.26792824 0.411865 -0.18086417 0.25818774 0.5352225 0.86138713 0.20091455 -0.04605636 -0.17743725 0.35661128 -0.56366223 -0.34842056 0.42067656 -0.5098699 0.057017773 0.40835077 -0.4802304 -0.38309473 -0.0028210236 0.11715575 0.53884494 -0.56472504
index(bytes1) 0.22636423 -0.18640617 -0.31222025 -0.4220495 0.6546564 0.3271703 -0.47970957 0.6345618 0.4713557 0.3831259 -0.612368 0.025484951 0.38001016 0.906807 0.27360797 -0.0642127 -0.19586597 0.07758675 -0.76970255 -0.35998043 0.37794378 0.06184741 -0.066172265 -0.06430484 -0.1324736 -0.36350098 -0.12281662 -0.009208222 0.30631137 -0.09384398 -0.6452835 -0.114771016 -0.04263115 -0.18829808 -0.106719 -0.14281683 0.33005306 -0.19671544 0.09740531 -0.16357689 0.5087115 0.11395694 -0.6711488 -0.069492646 -0.1232591 -0.0740485 -0.48868036 -0.47875345 -0.502897 -0.16902821 -0.2174192 -0.1927382 0.45370468 0.04978734 -0.78455967 0.071359016 0.5081229 0.104130164 0.24052998 0.48541895 -0.8781351 0.8000383 -0.06287817 0.18984509 -0.66616553 0.20943937 0.5710767 0.5812579 1.0176593 0.26041007 -0.52961046 -0.6053735 0.584271 0.05832152 0.16933343 -0.33222136 0.044660572 0.5443993 0.1450729 0.30427176 -0.531734 -0.17043036 0.46895346 0.43984842 -0.8411817 -0.52484906 0.20352314 0.08405406 -0.732071 -0.7431114 -0.37551868 0.850673 0.4885906 -0.2141045 -0.18034235 0.25673237 -0.11041407 0.7323016 -0.02127144 0.23550653
(state_solc_variable(string)):=(local_solc_variable(memory)) -0.43359634 -0.25295234 -0.13902098 -0.23363931 0.3200404 0.19422852 -0.40663671 0.787444 -0.45323703 0.5234047 0.022797665 0.29671472 0.060323298 -0.056644946 -0.121064425 -0.33286923 -0.1427421 0.18040521 -0.08343358 0.20110458 0.7426564 0.5350998 0.51688606 0.15644108 0.31698233 0.11807308 -0.4185129 0.2990594 0.61624974 -0.35945347 -0.6686527 -0.67507386 -0.4626815 0.55079496 -0.6402705 -0.26444283 -0.11330491 -0.2919941 0.40565825 0.10381523 0.09328563 -0.1577488 -0.1733225 0.18931751 -0.28818205 0.26761463 -0.048031274 0.3996055 0.11817858 0.28697047 -0.35527602 -0.9764473 -0.12255697 -0.10862336 -0.9399688 -0.21678998 -0.11812712 0.31396562 0.31348252 0.19063485 -0.21484989 0.39070114 -0.24293987 0.013782402 -0.006568453 0.21845308 -0.23826201 0.20996171 -0.1892311 0.89103436 -0.31352878 0.15483171 0.019496553 -0.23046325 0.043994717 -0.10725891 0.18494225 -0.42697006 0.3587645 0.11349362 -0.30429822 -0.07594431 0.25331995 0.50700146 -0.09008017 0.042716924 -0.61740744 0.37193266 -0.28079575 -0.6372683 0.29080054 -0.54285616 0.45898837 0.39634007 -0.91434056 -0.25083873 -0.57005036 -0.010936739 0.35935608 -0.48133814
(local_solc_variable(storage)):=(reference(user_defined_type)) -0.30215648 -0.54753566 -0.29486123 -0.18158175 -0.16927277 0.3973507 -0.5562967 0.1421554 -0.029964231 0.58779705 0.008093842 -0.18002771 -0.19637 0.12425635 0.12439011 0.11927494 -0.16820303 0.05173555 0.11103169 0.6281377 -0.23031561 0.111193076 0.43246445 0.22702616 0.34106418 0.06255024 -0.018786347 -0.12169612 -0.114283375 0.30506185 0.21765101 0.32779327 -0.5311474 -0.3296676 0.020568622 -0.10578012 -0.15131794 -0.09852896 -0.080470964 0.2908586 0.23229653 -0.3102479 -0.27632335 0.100732416 -0.00038615175 -0.1655862 0.03952376 -0.19056511 0.011015701 -0.118320845 0.14609778 0.037549514 0.21022291 0.12665153 0.090962395 -0.22706461 0.056803502 -0.09366089 -0.2123813 0.06908568 0.028049301 0.31670195 -0.036764435 0.103823856 -0.3136211 -0.5104641 -0.048412725 0.39842865 0.19463928 0.09965031 -0.29901773 0.28990158 0.20400025 0.30222628 -0.433779 -0.09488779 -0.13777743 0.23022707 0.36240685 -0.45700315 0.035174757 0.24802743 0.098008595 -0.109521665 -0.0032099264 -0.24383393 -0.032291107 0.008841033 -0.23848091 -0.107739456 0.027993022 -0.32805333 -0.20426053 0.19830894 0.04871452 0.17661108 -0.23260818 -0.42301902 -0.45457536 -0.5130671
new_structure -0.36825612 -0.11878856 -0.03391483 0.17956237 -0.051204223 -0.32241884 -0.619916 -0.1280087 -0.047509704 0.26753837 0.15258066 0.35177484 0.21681559 -0.044105012 -0.20064759 0.19441174 -0.316597 0.13088478 -0.25750455 0.62363106 -0.021438923 0.07636714 0.05679271 0.683689 0.43312013 -0.3709855 -0.5532423 0.33221883 0.32783106 0.3550428 -0.5515613 -0.2161168 -0.03969287 -0.10906479 0.15547912 -0.09998866 -0.08891735 -0.22042684 0.3810247 -0.09973651 0.87750334 -0.10332516 0.03172071 -0.18465483 -0.13724136 0.17455837 -0.24117713 -0.7854988 -0.7720525 0.08166399 -0.4261431 -0.41482443 -0.17223683 -0.5354218 0.26725855 -0.033630908 -0.1100955 -0.07127842 0.09727648 -0.011039404 -0.03400446 0.49903986 0.08256833 0.1448086 -0.45189926 -0.25501648 -0.14713085 0.430033 -0.14746195 0.45925373 0.03788932 0.42212164 -0.36262327 -0.21942608 -0.032124233 0.3284335 0.3719319 -0.07446965 -0.03932108 0.25719026 0.13410193 0.06110683 0.24600883 0.26048955 0.08329784 0.8277004 0.41264006 0.7640619 -0.042576525 0.12445123 0.28716603 -0.331002 0.087548465 0.28392938 0.47626892 0.07525287 -0.09176673 -0.004488362 -0.23717478 -0.37182844
(reference(uint256)):=(state_solc_variable(uint256)) 0.21352153 -0.37995127 -0.11154101 -0.1181563 0.58735675 -0.11118658 0.103016905 -0.21311158 0.1973282 0.040250786 0.631283 -0.16422768 -0.06580726 -0.08642531 -0.2348319 -0.07075538 0.20766148 -0.19593495 0.26799104 0.289572 0.30991715 0.40447873 0.2291619 0.2684315 -0.08183112 0.07483553 -0.35446325 0.05791039 0.5597578 -0.27303928 -0.39616457 0.06383004 -0.19634023 0.19331251 -0.13263303 -0.40037966 0.41055086 -0.002512509 0.5034414 0.19996099 0.47031242 -0.08645933 0.15838575 0.42575896 -0.32631543 0.17272519 0.24258858 0.0067054336 0.19205302 0.3581936 -0.45602468 -0.2734402 -0.0961863 -0.09188534 -0.26544225 0.4101058 -0.19581562 -0.4153173 0.03342928 -0.060466014 0.0847885 -0.16348377 -0.106815465 0.18468443 0.29292727 -0.14593329 -0.08786299 -0.010353304 0.055158403 0.34346053 -0.26190993 0.48191863 -0.124157526 0.11619595 0.4017793 -0.23227583 0.42553958 0.5649409 0.19723555 -0.035524487 0.025156368 -0.08371231 0.07862521 0.74835736 0.11287596 0.3578594 -0.12973692 0.45094052 -0.6362288 -0.18778647 0.02937074 -0.20997801 0.4984409 0.38499257 -0.27598703 -0.15734284 -0.38519663 0.25247335 0.29104203 -0.5802016
(state_solc_variable(uint256)):=(constant(uint256)) -0.102770686 -0.53658897 0.39968276 0.4074905 0.75364447 0.43647277 0.09275259 0.43142095 -0.19524832 -0.1423996 -0.14635812 0.077162854 0.00879905 -0.33589667 -0.16414712 -0.28407893 0.11902381 -0.2545386 0.29410994 0.28347254 0.33235073 0.24833518 0.025497131 0.112088636 -0.3097094 0.29253212 -0.40111774 0.4773478 0.2695751 -0.57186455 -0.5174581 -0.44503322 0.17373154 0.3321189 -0.18392956 -0.13947439 -0.3931443 -0.36950377 0.13732766 0.096294 0.30978066 -0.03931918 -0.49255556 0.37701404 -0.39803052 0.38683897 -0.030298904 0.37624907 0.12525176 0.11087836 -0.092733786 -0.4213994 -0.32121828 0.13196203 -0.061405245 0.26634836 0.027163869 0.0511415 0.20834333 0.1904465 0.12157881 0.18834445 0.0057329424 0.06287463 -0.43142328 0.22037518 0.31900463 -0.014681126 0.04642232 0.41559628 0.056693945 0.5765502 -0.23597991 0.10422496 0.5109135 -0.16025382 0.25941607 0.38396683 0.23475401 -0.36883935 0.25557372 -0.05705373 0.2677008 1.001334 -0.24419576 0.10480432 -0.028109709 0.39413062 -0.4714143 -0.2885598 -0.13044035 -0.2604099 0.19214845 0.3575715 -0.23120975 -0.30438176 -0.2839042 0.0007003288 0.014503254 -0.38784215
balance 0.08262657 -0.79183596 0.12815736 0.2127403 -0.1661902 1.0370184 -0.18177631 0.7705375 0.0059509445 -0.116087146 -0.23145334 -0.09188888 0.08263294 0.22591281 -0.017958444 0.44498205 -0.12274335 -0.065137915 0.60826725 0.231621 -0.012092649 -0.4935508 0.47489464 0.077211104 -0.54086274 -0.63123584 -0.18650049 0.21548918 0.598464 0.31034896 -0.38753647 0.2254399 0.030984644 0.050427027 -0.35412005 -0.19678241 -0.2106293 0.13722119 -0.0709668 0.037958324 0.10268812 -0.20382077 -0.44900545 0.22955374 -0.84696823 0.07098805 0.26170486 -0.03820791 0.12621354 0.74011207 0.6266338 -0.21054287 -0.06580932 -0.2616697 0.17489314 -0.10370436 -0.033238143 -0.13597687 -0.25358015 -0.345537 -0.2927569 0.070045024 0.09027782 -0.3727993 -0.26769814 -0.17782257 -0.19640386 0.2917716 0.25710875 0.5982174 -0.40842682 0.26653227 0.31941044 0.43932116 -0.12781945 0.055995066 0.5971805 0.8143463 -0.15636113 -0.041961078 0.2018123 0.13947333 0.49339452 0.56381196 -0.11131165 0.008564526 0.33296707 -0.4694505 -0.36562738 0.19905598 0.1266217 -0.31480366 0.04551008 0.23346731 -0.090244204 -0.9320665 -0.038566045 -0.13198234 0.26366627 0.09615269
(state_solc_variable(user_defined_type)):=(temporary_variable) -0.4927498 -0.32418898 0.5963471 0.19394201 0.16772833 0.6192229 0.14686422 0.057007223 -0.19849606 0.43801972 -0.13298897 0.051330566 0.0072789844 -0.19446976 -0.40991452 0.05269527 0.13989276 0.18817654 -0.33881283 0.568529 0.010043925 0.11474412 0.06340905 0.51658887 0.24596134 0.0064764856 -0.23495239 0.42047533 0.12624599 -0.6348377 -0.5811909 -0.14193362 0.1870978 0.20992647 -0.3230862 -0.015659362 -0.09249755 -0.088004045 -0.03167103 -0.14359179 0.68560266 0.019211443 -0.9454107 0.09706183 -0.42057323 0.40325737 0.15609232 0.21740733 -0.26406032 0.32076344 0.30674678 -0.40109286 0.018629227 -0.07168798 -0.65115607 -0.09891751 0.555132 0.4722888 0.6286437 -0.050320376 -0.2963785 0.4390431 0.07099939 -0.19036764 -0.62197757 0.08435769 -0.08920637 -0.054060664 0.08106215 0.8029863 -0.058482494 0.5304566 -0.308109 0.15347277 0.6211273 -0.36372384 0.15184468 0.056317117 0.18391396 -0.05822569 0.028109746 -0.011462055 0.12877735 0.21628328 -0.25266895 0.07735084 -0.03495539 0.28695202 -0.20563272 -0.15625593 0.2704284 -0.43536836 0.7680165 0.5934924 -0.07336448 -0.34146306 0.049570657 -0.093066104 0.110364795 -0.67882025
binary(%) -0.06438048 -0.2021519 -0.72053087 -0.11247089 0.1764624 0.26768988 -0.4080765 0.28673464 0.28401172 0.07753141 -0.16779326 0.06748644 -0.21374261 -0.40273502 -0.08471255 -0.5727162 -0.3059348 0.019803511 0.03717546 0.009082682 0.25338385 0.17453991 0.33027422 0.14088432 -0.091191754 -0.018881224 -0.20070349 -0.18613921 0.14806302 -0.008521521 -0.32184005 -0.012157999 -0.12420076 -0.06780367 0.12831116 0.005975967 0.09833557 -0.055109978 0.51829815 0.038443595 0.6894165 -0.16687089 -0.27532393 -0.31163356 -0.25095206 -0.007306551 0.09682328 0.045587987 -0.3296628 -0.10391143 0.37996346 -0.0057548294 -0.077122316 0.22219494 -0.21348509 -0.26173335 0.14494523 -0.121478744 0.14255159 -0.3094965 -0.12864353 0.067889065 -0.14060645 -0.23944141 0.11923363 0.70516163 -0.14958021 0.41296965 0.5220921 -0.20223318 -0.22948289 -0.36826715 0.22365884 -0.17174158 0.36946362 -0.3545813 0.4930223 0.380911 -0.06572721 -0.27704772 -0.5347695 0.3321539 -0.15000013 -0.163983 -0.07309499 0.31217852 0.63596416 0.018807922 -0.4665642 -0.050964877 0.71296483 -0.035352867 0.27481768 0.1122757 0.024046468 -0.16440926 0.18546282 -0.12144799 -0.4053559 -0.3049781
solidity_call(revert()) 0.07332494 0.080187954 0.04949401 0.18008633 -0.055985857 0.09775378 0.25236568 0.4992689 0.11480106 -0.16415586 0.0107187 0.3482124 0.10772251 0.42732054 0.0156722 0.8756606 -0.62535954 0.35324258 -0.09707063 0.28916952 0.122094326 0.17234501 0.46295714 0.09228043 -0.2186463 0.2562602 -0.24737501 -0.23377824 0.28797668 0.013666418 -0.16238375 -0.4817181 -0.38252386 -0.007762983 -0.074927956 -0.27046102 -0.69547015 -0.29181585 -0.24500485 0.39517874 0.10415222 -0.31164894 -0.6214597 0.096692905 -0.3579276 0.20131065 0.05612212 0.48641193 0.13618003 0.26678467 -0.16128433 0.13576987 0.124084145 0.34649733 -0.32696638 -0.19187784 0.19887125 -0.40102232 0.08556187 -0.23175196 -0.14803077 0.08832218 0.26501983 -0.11660863 -0.16818303 -0.31255668 0.278214 -0.24517426 -0.26000038 0.32416314 -0.097177714 -0.13261943 -0.21750139 0.21528853 0.29416335 0.023632567 -0.04708938 0.04675478 0.19258323 -0.19580846 0.12940322 -0.40661213 0.09073599 0.6777282 0.28583968 0.058303174 0.28152794 -0.061908394 -0.5002059 0.08553717 0.3432019 0.09131851 -0.0040152674 0.2361938 -0.26277685 0.24009974 -0.5975129 0.36220416 -0.0048850267 -0.6736234
(reference(uint256)):=(local_solc_variable(default)) -0.11270182 0.0066163503 -0.078737296 0.2037162 0.18046197 -0.15500174 -0.06378899 0.031345926 -0.020040663 0.12267541 0.4088378 -0.27019283 -0.001076195 0.3416243 -0.45567718 -0.45846432 -0.42899704 0.1758969 -0.12283397 0.00816002 0.10066068 0.23138739 0.40869305 -0.053233564 -0.2355284 0.13409452 -0.3508789 -0.28967622 0.10782314 0.40513363 -0.29687378 0.2674275 -0.040354706 -0.094236836 -0.18353832 -0.42866898 0.19391477 -0.108162194 0.14612487 0.12312944 0.4492988 -0.037112083 0.12679991 0.05997359 -0.24238884 -0.26883394 0.22309417 0.3311562 -0.016486797 0.029884141 -0.15610251 0.1415976 -0.19154209 0.18694292 0.059146456 -0.13264902 -0.20884967 -0.16134615 -0.22255512 0.010784844 -0.20690252 0.16685611 -9.38089e-05 0.44002166 -0.075726934 0.077416345 0.13086422 0.14406812 0.08810597 -0.0618515 -0.18996488 -0.17758404 -0.014492864 -0.109912306 -0.35891283 -0.26336426 0.036976002 0.6654212 0.19195613 -0.33353797 0.4268812 0.18612555 0.083140105 0.4011139 0.144364 0.22071432 0.3701394 0.29210132 -0.077718966 0.07920065 0.24197224 -0.17469063 0.19585246 0.26036897 -0.15357684 0.06682995 -0.3826661 0.10302302 -0.23970847 -0.1106341
transfer(local_solc_variable(default)) 0.24430414 -0.38282812 0.2513522 0.46331188 -0.026165614 0.4620723 -0.44046083 0.3033709 -0.04756699 0.09430488 0.01972763 -0.45563605 -0.28131682 0.16437685 -0.12666894 -0.051153537 0.066408984 0.3904705 0.29960403 0.12709962 -0.08289353 0.46139318 0.45611477 0.030221287 -0.15228614 -0.29910123 -0.22378194 -0.32885948 0.07401036 0.46719444 -0.4454884 -0.17393118 0.09164682 0.23162201 -0.15463577 -0.09910854 0.11213315 0.18278767 -0.12653524 -0.06743259 0.23430786 -0.26786852 -0.56380457 -0.09502984 0.010114464 -0.061587308 0.38727394 0.21016507 0.019459745 0.25299618 0.31682777 -0.0016055569 -0.28647316 -0.018589836 0.21724786 -0.12349904 0.13825957 -0.246195 -0.12547623 -0.22801377 -0.01317745 0.117688596 -0.20897101 -0.3728947 -0.34963974 0.17999825 0.06857541 0.19890453 0.21163839 -0.06496249 -0.19760706 -0.19830556 0.008340813 0.044706758 -0.37058488 -0.20521317 -0.033561163 0.78212184 -0.1898975 -0.18877532 0.39860255 -0.13735814 0.41406646 0.5132161 0.23715515 -0.10670584 -0.025286041 0.3109351 -0.5661301 0.29461265 -0.19831139 -0.004513178 0.27127272 0.5118989 0.09910828 -0.46248588 -0.47188142 0.091377266 -0.07788469 -0.33085692
(local_solc_variable(default)):=(solidity_variable_composed(msg.sender)) -0.10067249 -0.2794844 0.26236424 0.6096267 0.07389131 0.02678709 -0.47829595 0.3789088 0.2439139 -0.15209651 0.12227134 -0.2066814 0.10229694 0.24661861 -0.28863716 -0.050692827 -0.1591975 0.14876379 -0.2230926 0.1957824 0.10420967 0.4872751 0.18390784 -0.03127233 -0.06954741 0.19364835 -0.1865005 -0.06947755 0.15290254 0.07244197 -0.15842739 -0.54281515 0.06879888 -0.3043616 -0.114433475 -0.22698022 -0.29008025 -0.1277178 0.032937367 -0.041750394 0.29622126 -0.060188103 -0.11547167 0.05011058 -0.055664912 0.15457904 0.22075601 -0.065550745 -0.035659976 0.40068218 0.22296566 0.004823251 0.29595622 0.40050465 -0.20332935 -0.17193536 0.04867088 -0.19993258 -0.17105931 -0.21906677 0.0697266 0.04173688 -0.10581862 -0.33589274 -0.03278841 0.07629406 -0.31512344 0.37441334 0.18341108 0.20603406 -0.23878428 -0.19455126 -0.12143399 -0.10580851 -0.19372483 0.012718885 0.25878412 0.45936316 0.148192 0.18241459 0.05414061 0.36638778 0.2616616 0.5754072 0.31450382 -0.038688716 0.19108951 0.25086123 -0.30798453 -0.015417323 0.002561934 -0.19041689 -0.2790431 0.28363627 -0.30447477 -0.056019537 -0.17514795 -0.0370923 0.47001094 -0.39121437
solidity_call(keccak256()) -0.34194425 -0.03466581 -0.5303765 -0.23061457 0.17211552 0.1029611 0.5414607 0.37497133 0.046698976 0.7034344 -0.12893459 0.32264745 -0.056738116 0.39307535 0.49064133 -0.18973106 -0.16433303 0.16277161 0.5242134 -0.06847599 -0.0034718092 0.6164703 0.23840317 0.49711683 -0.23734157 0.23556861 -0.3089551 -0.15480886 -0.11860597 0.26137686 -0.7769965 -0.34996468 -0.27389246 -0.23049879 -0.37138575 -0.451436 -0.6948885 -0.1897248 0.10779854 0.06538369 -0.022626566 -0.23696303 0.08955052 -0.37412462 -0.36905932 -0.0038143655 -0.2602624 -0.031244649 -0.067389674 -0.14271237 -0.10598427 0.5005416 0.054812346 0.024659077 0.11497682 -0.08884657 -0.2601585 0.023180129 0.13488798 0.35063747 -0.29754794 -0.40492007 -0.38450217 -0.3832908 -0.12604474 0.38303858 0.2523802 0.68031776 0.02245053 0.6138029 -0.3921264 0.13089903 -0.08203575 0.26266325 0.31914684 -0.12356655 -0.16982356 -0.34562773 0.20065393 -0.2925447 -0.26233703 0.63530463 0.2628326 0.21669513 0.020358577 0.18461883 0.30278644 0.17945512 -0.17470564 0.08841591 0.20385744 0.15400372 0.10460245 -0.04694113 -0.25391728 -0.36990395 -0.1496371 0.19775733 0.023910359 -0.42891145
internal_call(address) 0.11590429 -0.0045261555 -0.2779288 0.08221637 -0.047856957 0.43111575 0.21124819 -0.25481126 -0.08148577 0.27062538 -0.40073982 -0.25425696 -0.11634562 0.24948546 -0.23032194 0.43725193 -0.2926001 0.11847861 0.18547444 0.27341506 0.38546893 -0.0019909302 0.6302996 0.065934435 0.36701274 -0.23047918 -0.23353735 -0.5429322 0.12543175 0.088564016 -0.769372 0.32715905 -0.2740075 -0.08395882 -0.4118745 -0.2556602 -0.24117108 -0.33706617 0.15905546 -0.5309091 0.53826785 0.34686384 -0.21225324 -0.18621427 -0.13483837 0.05761965 -0.10647974 0.3137754 0.055097297 -0.03319227 0.16562165 0.020639218 0.047565043 -0.12803555 -0.0950905 -0.074135825 0.21184343 0.10243044 0.40592113 -0.29895717 0.14948288 0.085005306 -0.10542375 0.11804115 0.03992845 -0.15307674 0.31526828 0.30164233 0.2570313 0.13148682 -0.008385624 0.33716604 0.012497919 0.36984694 0.09850469 0.14260566 -0.31794006 0.27459958 0.22071594 -0.3020642 0.011956372 0.24765354 0.24810734 0.24523902 -0.09302686 -0.33608407 -0.30885684 -0.10164692 0.11123912 -0.12464711 0.35793173 -0.2990455 -0.03727853 0.10220238 0.08655164 -0.24257834 0.21016347 0.16870485 0.22018366 -0.23640995
type_conversion(int256) 0.11740438 -0.42112172 -0.20863175 -0.023313161 0.73751193 -0.17659713 -0.6316778 0.5458154 0.26181033 0.3449597 -0.110879384 0.072412714 0.33828247 0.3239519 -0.28865921 0.083324306 0.1685237 -0.1469448 -0.4437966 0.05762576 0.68188983 0.50759876 0.0860305 0.1286787 -0.43485594 0.04586471 -0.2827192 -0.044811945 0.09816084 -0.318438 -0.33825666 -0.6196296 -0.057794295 0.54831594 0.28532445 -0.15141203 -0.49733213 0.10108774 -0.2756636 -0.16538326 0.30822352 -0.27860612 -0.7211367 0.1835053 0.12629664 -0.55240965 0.39988703 -0.035160486 0.28709474 0.14809681 -0.055982765 0.33183128 -0.31767362 -0.29989082 -0.8815034 -0.59283245 0.103172205 0.36481538 -0.88032997 0.19649817 -0.12207303 0.20260723 -0.430662 0.020432428 -0.8665215 0.15193684 -0.11273792 0.52875644 0.006903695 -0.15760744 -0.07741608 -0.010927393 0.18613772 0.32006025 -0.739558 -0.11278736 0.054399047 0.3131836 -0.13972293 0.14092772 -0.20901312 0.13204415 0.115123145 0.19805554 0.17513771 -0.4616635 0.062734336 0.09129349 -0.31535393 0.036315642 -0.07084511 -0.20217964 -0.29749468 -0.08616121 0.29767206 -0.00704535 -0.68106574 -0.15174936 -0.12272576 0.26706454
index(uint32) 0.066601515 0.18320087 0.085070975 -0.43926555 -0.20941626 -0.7001264 0.04504412 -0.3775633 0.720948 -0.23518234 -0.21174361 0.7518536 -0.2424183 0.35436612 0.19220047 -0.51673836 0.43999594 0.34596422 0.4395519 0.35902858 0.0965123 0.13841483 0.4072928 0.12409929 0.44820327 -0.39891598 -0.015553319 0.071509436 -0.1793787 0.032665286 0.6471852 0.5067942 -0.3678589 -0.18709762 -0.46601883 -0.020844446 -0.6708804 0.097340755 0.4128176 0.6458386 1.0949228 -0.071748585 -1.2823194 -0.06340041 -0.44173577 -0.12287968 -0.056974825 0.46777952 0.4691938 0.15314332 -0.13770032 -0.2580409 -0.0054563056 0.1384195 -0.17769012 0.27266222 0.6440145 -0.52636826 -0.06981531 -0.092266 -0.7147602 0.18888721 -0.17750746 -0.006114066 -0.7871783 -0.21705207 0.39025363 0.47029927 0.29734218 0.4040278 -0.64218616 0.21828082 -0.45093858 0.0065745595 0.0916523 0.015602765 0.27730638 0.083316885 0.041048557 -0.85740215 -0.41723016 0.42730403 -0.048870157 -0.071681924 -0.25185436 0.6408255 0.41509202 0.014801286 -0.92016774 -0.5751142 0.6184834 0.0287186 -0.71199304 -0.30716157 0.22440025 0.2711938 -0.6039623 0.30842838 -0.3813594 0.028199703
(reference(uint256)):=(reference(uint256)) -0.20621303 -0.53035927 -0.3106816 0.04951698 0.64211667 -0.15744273 0.28108647 0.001900082 0.29018748 0.3487267 0.6194534 -0.014885065 -0.09574318 0.382084 -0.29929903 0.024349235 0.03918917 -0.3299266 0.052117318 0.011113781 0.04708076 0.15811788 0.34164846 0.121271595 -0.05257504 0.051786322 -0.40603662 0.044400245 -0.044731922 0.52071434 -0.3717406 0.561566 -0.46088845 -0.11229042 -0.34008405 -0.19113104 0.33454943 -0.041122664 0.19229707 0.31255 0.41124457 0.044916783 0.37516916 0.48578033 -0.42095155 -0.25078624 -0.08393634 0.04874163 0.33530363 -0.36631992 -0.7106215 0.17678635 -0.1650848 0.049588248 0.03827917 0.051271606 -0.19673643 -0.05175182 -0.46288738 0.12930278 -0.5646771 -0.190876 -0.012520531 0.99878377 -0.12784703 -0.3427288 -0.008255772 0.09062665 0.16512387 0.3843333 -0.55920875 -0.13802409 0.24821231 0.18263453 -0.24931742 0.10074399 0.071509905 0.89382786 0.3638756 -0.31797007 0.44302765 -0.069378816 0.37048826 0.50283027 0.13868389 0.28272295 -0.08444984 0.48155388 -0.22583213 0.29612836 0.42716774 -0.31953466 0.036839537 -0.0325893 0.35915488 0.00998107 -0.20969486 0.19769233 -0.17549385 -0.080876544
(state_solc_variable(string)):=(constant(string)) -0.37121993 -0.8189596 0.3967747 -0.030917687 0.8833496 0.522438 -0.09716269 1.2956891 -0.039144907 0.3187888 -0.47493616 0.80282897 0.32355204 -0.32125652 -0.17803451 -0.52146554 -0.20821011 0.7197913 0.11932881 0.22297114 0.9796582 0.9141562 0.6646561 0.1564726 0.32494658 -0.027992602 -1.2824227 0.11723339 0.7402134 -0.1911442 -0.9315817 -1.014644 -0.38249183 0.6554612 -1.0398483 -0.61268497 -0.071343556 -0.32852444 0.07055647 -0.33664757 0.22061309 -0.15085396 -0.18185358 0.28071252 -0.6603535 0.19508463 -0.6103001 0.37322998 -0.057989914 -0.27976733 -0.64997244 -1.1787729 -0.29752767 -0.57823575 -0.595224 0.45106074 -0.025796898 0.5970811 0.4766524 0.48831257 0.47056356 -0.2014111 0.08888079 0.47986493 0.08815357 0.552954 -0.18110281 -0.15244374 -0.29167864 0.9163904 0.040461976 0.706374 0.2154868 0.019684996 0.03313112 -0.42004395 0.185695 0.19861892 0.2495813 -0.11353401 -0.9067351 0.26414508 0.778214 1.0710341 -0.21120816 0.22704753 -0.7737776 0.41103584 -0.892157 -0.6455763 -0.21081418 -0.017975412 0.19385675 0.2589667 -1.0175555 -0.30869347 -0.18898328 0.3098891 0.05644898 -0.39453712
(reference(user_defined_type)):=(temporary_variable) 0.0011969851 -0.5441998 0.13842347 0.0019011978 0.5823454 0.16764796 0.016059227 -0.19530797 0.2144555 0.44830877 0.22792338 0.10263583 0.037603017 0.006344758 -0.28573468 -0.046380628 -0.34670246 0.14584461 -0.4215588 0.4935146 -0.304831 0.15662491 0.044388797 0.26145917 0.4267329 -0.11944901 -0.26012665 -0.0345166 0.40187195 -0.03492494 -0.14878213 0.21331435 -0.18572393 -0.352711 -0.28020513 -0.46087846 0.4149808 0.11519008 -0.048730116 -0.022409363 0.77129966 -0.18148802 -0.39707592 -0.106616594 -0.51945466 -0.020074965 0.056434296 -0.3957922 -0.29716763 0.29524782 -0.09935775 -0.07017042 0.015818596 -0.3528813 0.0805957 -0.07981073 -0.010949694 0.003662391 0.25324795 0.30027145 0.3562787 0.2972445 -0.019054787 0.007438273 -0.6299698 -0.37314636 -0.049231067 0.058094013 -0.06504681 0.49501187 0.15672989 0.5066289 -0.55021876 0.16161677 -0.07521861 -0.24371213 0.07578925 0.13413389 0.10951144 0.076464035 -0.07363193 0.09197092 0.25263765 -0.14707042 0.21100517 0.13414775 0.38961855 0.5868325 -0.12994562 0.20631604 0.22075765 -0.0872901 0.31448498 0.50644696 0.75641155 0.1462611 0.19626167 -0.11856676 0.18217015 -0.63530827
index(uint8) -0.64982516 -1.1369122 0.16637163 0.04606567 -0.032725014 -0.5527084 -0.65319496 0.27109167 0.69634527 -0.18104711 -0.09843443 0.32256368 0.06873363 0.18229638 -0.32645172 0.2852057 -0.25038624 0.5385268 0.48459297 0.6148854 0.74175 0.43819082 0.13144015 0.039697945 0.00618498 -0.22552031 0.4861372 -0.2960359 -0.11877246 0.4331518 0.4598898 0.16087961 -0.5923733 -0.71148306 -0.7664085 -0.075793624 0.06188964 -0.27891952 0.6687946 0.5066053 0.10877305 0.39021102 0.008261221 0.13430494 -0.19903806 -0.2332053 -0.38287744 0.44788644 0.085365996 0.12759732 -0.14320196 -0.04270248 -0.53166276 0.049915347 -0.40213615 0.12761967 0.3911866 0.16163738 0.038130905 -0.3700543 -0.4035799 -0.12649383 -0.6505762 0.00045777476 -0.3087307 0.32459122 0.43299764 0.16710058 0.7398333 0.021261489 -0.3067298 0.5880868 -0.75019747 0.0020597093 -0.14166832 0.09860668 0.33441728 0.25851363 -0.21713352 -0.358243 -0.37729582 0.18267691 -0.02832592 -0.30290505 -0.08205502 0.07654925 1.0984349 0.4318924 -0.3326738 -0.31321487 0.10139532 0.3253704 -0.21953419 0.9584547 0.0052379174 0.32573488 -0.011731397 0.5066657 0.105905674 -0.087146826
(local_solc_variable(default)):=(reference(address)) 0.09977146 -0.23426388 -0.14949483 0.19714412 -0.042385176 0.2621899 -0.41509724 -0.07804838 0.12455239 0.3893738 0.058096476 -0.28390214 0.03932037 0.21053599 0.050820995 0.00704143 -0.008983734 0.18495423 0.0132328 0.40916434 0.08181459 0.10144644 0.2657431 0.07474181 0.066586144 -0.19548978 -0.3259574 -0.39364198 -0.27161288 0.26172104 -0.32358477 0.20144816 -0.32893288 0.04362259 0.053369105 0.1514401 -0.010655709 -0.19816127 -0.08993195 -0.023955401 0.16135222 -0.11016247 -0.09025908 -0.086604886 0.043301597 -0.22553276 -0.10132736 0.29069698 0.23968656 -0.044325873 0.21735886 0.022061743 -0.02871096 0.071601935 0.2000259 -0.252706 0.20609348 -0.29278752 -0.24617904 -0.06300852 -0.29304168 -0.101821184 -0.3520738 0.08466944 -0.47578716 0.22828475 0.32669088 0.26326346 0.1611864 -0.14158596 -0.38742408 -0.15747783 0.32903087 -0.09941864 -0.38360396 0.3573115 -0.3530828 0.6665123 0.32756025 -0.32562417 0.3196896 0.18557318 0.15711704 0.28370613 0.046740856 -0.039683122 0.160175 0.09563976 -0.48527348 0.044452947 0.36598393 -0.2895977 0.021754062 0.18793042 -0.033423737 -0.20647763 -0.13603471 -0.059898507 -0.025027608 -0.39608955
new_elementary(bytes) 0.111485615 -0.67717105 -0.9454945 -0.50542754 0.75400585 0.13247372 0.0039147064 0.572726 0.513202 0.43687296 -0.91385496 0.6244153 1.0058093 0.7258117 -0.062297918 -0.1169302 -0.23154204 -0.09257563 -0.007683778 -0.31759062 0.7002998 0.53812313 -0.05492001 0.161542 0.29316038 -0.35536626 -0.2227676 -0.20830937 0.008666663 0.07028212 -0.40765956 -0.07104171 0.047600586 -0.35317302 -0.38474846 -0.36363116 0.038931746 -0.23817618 -0.28004178 -0.46987212 1.2354841 -0.13020986 -0.2807831 -0.55423105 0.17179725 -0.008075943 0.01019647 -0.6680715 -0.36167753 0.5161772 -0.41174114 0.07300621 -0.3195057 -0.15681888 -0.07044727 0.06724396 0.10561966 -0.022496771 0.05206065 -0.12053935 -0.25700125 0.28890517 0.14052898 -0.24368654 -0.9199417 0.49487707 0.062171407 0.2941167 0.5714994 0.71060747 -0.08939536 0.13868801 -0.053606525 0.38987753 -0.010600813 0.052196834 -0.047839496 0.54366654 0.1526207 -0.0713609 -0.26939097 -0.10997932 -0.0773443 -0.11666274 -0.32904774 -0.21653672 0.04138692 0.26039073 -0.27072114 -0.7191647 0.14702734 0.77922106 0.48780134 -0.1600123 -0.46045598 -0.36304018 -0.076026306 0.609166 -0.020027217 0.17309172
(reference(address)):=(local_solc_variable(memory)) -0.027359776 0.29339123 -0.25813192 -0.31256136 -0.023502357 -0.059177887 -0.24350539 -0.40499195 -0.18105526 0.14290076 0.3663973 -0.09143851 0.0783063 0.25015923 -0.26177487 -0.20011483 -0.21280463 0.23412499 -0.027527297 0.044493463 0.23378922 0.14731051 0.6622953 -0.06564197 0.14876448 -0.3321733 -0.13955174 -0.34372422 0.27956703 0.2515043 -0.4195092 0.20443504 -0.54831886 0.10098076 -0.018552113 -0.46027067 0.3950325 -0.5713201 0.33193332 0.11052096 0.27763405 0.15337844 -0.48156905 0.01661923 -0.26934937 -0.15121347 0.2840741 0.4393987 0.23330152 0.19726257 -0.48455173 -0.28408504 0.01767614 0.1492358 0.14004125 -0.21258841 -0.3990069 -0.09313307 -0.20321922 0.19263868 -0.2150703 0.62799513 -0.4464703 0.31210232 -0.20480998 -0.11884479 0.09402385 0.10774098 0.23973097 0.38634533 -0.4653013 0.07193355 -0.038435884 -0.32756364 -0.22314318 0.25790602 -0.22771506 -0.052934166 0.39823523 0.009571215 0.20616037 -0.07309864 0.09657058 0.094230756 -0.2676744 -0.002091122 0.13947861 0.2076082 -0.12409659 -0.17609803 0.66141534 -0.4038501 0.015672335 0.27312306 -0.07061715 0.076185755 0.4169033 0.17208347 0.24892676 -0.23170157
index(bytes32) -0.5465037 -0.19111265 0.049990524 -0.22175911 0.5679007 -0.3239176 0.14284019 -0.36507928 0.24386701 0.27632952 -0.16092099 -0.101351686 -0.1699107 0.51668334 -0.15645716 0.5700187 -0.84553164 0.3086301 -0.1496598 -0.2188493 0.10534405 0.04401021 0.14412352 -0.004634446 0.12414121 0.1383856 -0.5009748 0.1246769 0.20202304 -0.20324492 -0.022297096 -0.24332716 0.023825068 0.030765694 -0.4427727 -0.56240094 -0.1586685 -0.49008462 0.10985066 -0.017538715 0.43931338 0.01867835 0.5796443 -0.2949697 -0.7164261 0.06732959 -0.5391962 -0.08861877 -0.37233743 0.46423262 0.020282088 -0.055915605 -0.7116907 0.14294517 -0.031787965 0.07934265 -0.42670202 0.25078255 -0.4308027 0.14665695 -0.10038784 0.27340734 -0.2769372 -0.29492334 0.15406476 -0.16536272 0.43047866 0.12453812 -0.0121086 0.07962265 -0.79756916 -0.10951394 0.12369253 0.16790418 0.043175295 0.36204034 -0.19626811 0.13046099 -0.003161538 -0.56283176 0.038763687 0.49767938 0.12780605 0.69140685 -0.038082838 -0.26094106 -0.13251494 -0.123218164 -0.76614743 -0.22397733 0.8178838 0.6879771 0.12988186 -0.29408467 0.7603545 0.03862931 0.19549131 0.010765221 -0.22814636 -0.57776606
index(bytes) 0.024345864 -0.4252895 -0.53458256 -0.9063205 1.1672386 0.3241908 -0.7648837 0.8763001 0.33004484 0.47852442 -0.9894943 0.3949089 0.39910755 0.54067063 -0.041799583 0.052210674 -0.18585081 0.0065113474 0.2530922 -0.21094717 0.58896196 0.46948436 0.14366692 0.07607281 0.15285648 -0.3473674 -0.43266904 0.08545597 0.1471669 0.051730085 -0.037724625 -0.11669243 0.4580993 -0.46822414 -1.0136936 -0.08524003 0.76147157 0.034463834 -0.41194728 -0.36675733 0.64352477 0.5337749 0.16544493 -0.7610893 -0.55262333 0.35424155 -0.3778515 -0.55390924 -0.75070876 0.3575937 -0.4048405 -0.5034519 -0.4889193 0.1447253 -0.41528463 0.42815608 0.3050385 -0.30072868 0.1365272 0.3007167 -0.8117107 0.5772891 0.41108865 0.24460974 -0.7369837 0.31851012 0.40182543 0.5738838 0.8276887 0.66719216 -0.42426026 0.08081495 -0.16871238 0.40814838 0.18549883 0.0432742 0.18315257 0.71240234 0.24697113 0.1938185 0.12888207 0.07746427 0.532752 0.27832913 -0.64564663 -0.85978705 -0.015836112 0.21312799 -0.299212 -1.043697 0.035333887 0.65689164 0.4196536 -0.46176142 -0.029901413 0.2106747 -1.0753806 0.62993973 -0.37896204 -0.027701877
(local_solc_variable(default)):=(state_solc_variable(uint256)) 0.38513336 -0.11287267 -0.13795571 0.044700433 -0.044706404 0.026814077 -0.28958923 -0.087772086 0.10565288 0.113346696 0.2415284 -0.3243 -0.019208727 -0.032474555 -0.036771987 -0.15093583 0.03602179 -0.096690826 -0.045099538 0.4638016 0.074972115 0.56641483 0.15414315 0.26504952 -0.0150196105 0.03841195 -0.26103306 -0.10966531 0.17376289 -0.314303 -0.3223045 -0.042782377 0.089543656 0.10152856 0.08261796 -0.07474889 0.21677239 -0.14286631 0.22413257 -0.034752272 0.5336342 -0.20635532 0.14140512 -0.008842987 0.010909846 0.005624019 0.11593161 0.2142158 0.22666037 0.33773485 0.43623778 -0.10482808 -0.17160547 -0.051374625 -0.27662838 0.115471505 0.072918236 -0.63889664 0.15481007 -0.22716665 0.1368852 -0.042864252 -0.096105725 -0.2603251 -0.13191625 0.052844524 0.23504795 0.27547145 0.06212398 0.094950415 -0.18178463 0.16085507 0.0074314233 -0.05595736 0.18608083 -0.17104724 0.23264624 0.6440432 0.042607922 -0.13450286 0.20799485 0.13336037 -0.029856788 0.36923793 0.24406768 0.12187131 0.104317024 0.2535623 -0.6477278 -0.19773257 -0.010237628 0.16393648 0.46591154 0.4401868 -0.28423455 -0.20601335 -0.48010907 0.10991285 0.21698903 -0.6036055
type_conversion(uint8) -0.12905638 -0.8612244 0.026898742 0.06520354 -0.10501271 -0.35080457 -0.24227624 0.2553551 0.5859498 0.20766816 -0.012647249 0.5078067 0.13530262 0.111591876 0.07717166 0.20405996 -0.25069147 0.22483085 0.22527213 0.23834701 0.36518374 0.46099553 0.20012659 0.008751198 0.08494296 -0.47490028 -0.1206585 -0.39604247 0.3786477 0.08364095 0.046436958 -0.08341655 -0.07996581 -0.14556487 -0.32363045 -0.02599903 -0.008167657 -0.5402308 0.07878436 -0.00091310526 0.045068815 0.25756726 0.07989552 0.18482108 0.038918164 -0.09979427 -0.07200235 -0.39594162 -0.12848768 0.20667814 -0.21857582 0.09468378 -0.08341916 -0.14075468 -0.635871 -0.23529617 -0.15933095 0.2380308 0.08174891 0.078267716 0.06406017 0.057278413 -0.49996036 -0.0634308 -0.44382548 0.701369 0.35802367 0.03913582 0.99063337 -0.026975088 -0.31191817 0.02748252 -0.27138817 0.0045131515 -0.31552675 -0.53905874 0.61287993 0.14036787 -0.06840126 -0.21496858 -0.23256935 0.13983048 0.3474945 -0.307669 -0.25847247 0.46445563 0.7463251 0.35376006 -0.1674282 -0.083835125 0.16355003 -0.18299824 0.29651222 0.32377467 0.33865818 -0.025203383 0.40894702 0.34462485 0.20386228 -0.05358998
(local_solc_variable(default)):=(local_solc_variable(memory)) 0.13436936 0.08148347 -0.29029164 0.13929233 -0.24309213 -0.19618371 -0.40153936 0.16421637 -0.24333821 0.04864167 0.1559935 -0.19432834 0.001804449 0.28567192 -0.057596926 -0.3057918 -0.22630006 0.06232039 -0.379726 0.10931101 0.102711596 0.32511625 0.33473146 0.026526568 -0.11166103 0.025594529 -0.1706944 -0.23738064 -0.009445342 -0.030561598 -0.22792472 -0.25740355 -0.299733 0.068961345 0.003298285 -0.26591262 -0.005240457 -0.35474294 0.1194074 -0.053508416 0.42932466 -0.03546611 -0.063798584 -0.15432653 0.007079529 -0.20276979 0.07025515 0.35509145 0.092882656 0.23975232 0.49711537 -0.009305577 -0.09983121 0.13160963 -0.38377783 -0.49652144 -0.022820847 -0.04036141 -0.06462936 -0.24104342 -0.22104844 0.4900302 -0.2806937 -0.18973577 -0.38677415 0.063027225 0.18255676 0.40208244 0.29558438 0.25173986 -0.3641394 -0.3954863 0.07445538 -0.4141548 -0.23587216 -0.092232645 0.070088826 0.38558513 0.24661936 -0.05904191 0.19420405 -0.0052474095 -0.2558773 -0.044556193 -0.008048023 0.038066797 0.10739293 0.12524585 -0.051864248 -0.1561681 0.21239924 0.044850003 0.20242074 0.21042721 -0.26535773 0.043787114 -0.10287657 -0.011104713 0.25321528 -0.062902704
type_conversion(bytes) 0.49375877 -0.43919545 -0.5782345 -0.30967683 0.57870287 0.1329615 -0.42340887 0.7927754 0.43500307 0.5597191 -0.33336675 -0.16324231 0.3918633 0.4704497 0.17996094 -0.013415417 0.23841813 -0.4014007 -0.04613544 -0.29701748 0.56577283 0.23193492 0.4435621 0.13022052 0.15006861 -0.28023502 -0.46802083 -0.10426915 0.61824536 -0.1576603 -0.49197042 -0.037040483 0.10302263 -0.14673732 -0.46884286 -0.35627726 0.2872029 0.01619118 -0.21837105 0.09061354 0.143777 0.14183038 0.01673339 -0.26109478 -0.030104162 -0.0084120855 -0.06235474 -0.711027 0.03668262 0.3799496 -0.11439255 -0.7413508 -0.15889223 0.011444935 -0.866731 -0.0369956 -0.005183676 0.112437464 0.51845497 0.06767292 -0.36400384 -0.08911406 0.2976848 0.26755583 -0.5052789 0.14848399 0.3658878 0.6251069 0.48185098 0.06552813 -0.5984457 -0.3789237 -0.12214051 0.31625432 0.22700451 0.033092774 -0.26808426 -0.18039611 0.017045965 -0.21551408 0.36716387 0.057277143 0.46356526 -0.08547437 -0.6688471 -0.04918813 0.39769784 0.045730963 0.10402077 -0.7799395 0.21236087 0.122700125 0.2291495 -0.099714436 -0.29646787 0.10571101 -0.37838784 0.18644784 -0.21183966 0.118728735
(state_solc_variable(address)):=(temporary_variable) -0.13124855 -0.041562427 0.32910076 0.35458806 0.3461521 0.77077043 0.08873603 -0.15428309 -0.18838637 0.33317053 -0.48683152 0.018612936 0.15749957 -0.18803911 -0.14192064 -0.23976652 0.20299119 0.49604523 0.11526915 0.3137385 0.3527567 0.121807404 -0.20556614 0.32495868 0.20224513 -0.20472819 -0.44133618 0.087023444 0.019953957 -0.41379303 -0.8793333 0.030140465 -0.2858141 0.4795289 -0.4688968 0.11804294 -0.27614722 -0.26733857 0.1799363 -0.5191286 0.35355553 0.08095651 -0.7662536 0.19977982 -0.5293812 0.2406214 0.30854452 0.027585631 -0.078516655 0.2059864 -0.20552562 -0.48290965 -0.56882393 -0.588565 -0.24395528 -0.029447252 0.48888156 0.18748783 0.3456662 0.1638877 -0.3000779 0.24380186 -0.1448581 0.1990805 -0.12809886 0.18107338 -0.16977037 -0.05753508 -0.24751075 0.4533992 -0.23327096 0.7114039 -0.1803656 -0.13911486 0.45939988 -0.21571676 0.06097042 0.04108794 0.064981714 0.16936928 -0.25546542 0.2264875 0.53647095 0.3847109 0.21239762 -0.14626189 -0.30071688 0.15450189 -0.65968806 -0.52695084 0.59608114 -0.38385478 0.6340768 0.48765695 -0.052308388 -0.4780804 0.05225197 0.2050927 0.26286545 -0.34282488
internal_call(struct) -0.10672934 -0.12381823 -0.0116563 -0.09028508 -0.3462145 -0.008194228 -0.25906864 0.32829133 0.21787803 -0.16195755 -0.004046816 -0.17915007 -0.015823184 -0.05087387 -0.06655308 0.055203717 -0.3633658 -0.415744 -0.13166252 0.62162507 0.42703387 0.7620538 0.5020857 0.32252532 0.10810445 0.037021756 0.18347593 -0.19723171 0.22602524 -0.02714068 -0.53690434 0.35165727 0.01040277 -0.17435665 -0.10652925 -0.338972 -0.041491915 0.043151684 0.2857727 -0.30714744 0.9213789 -0.09749158 -0.48722658 0.1326222 0.053232238 0.021475488 0.30621505 -0.058556475 0.13676535 -0.07568356 -0.10232061 0.13075249 0.11543018 -0.5523724 0.16558573 0.17152673 -0.4305222 -0.14953382 -0.1527693 -0.38320026 0.24388775 0.14787854 0.44741464 0.34399018 -0.554599 -0.55981576 0.11381519 0.67037296 0.6392554 0.1181472 0.40642023 0.5589737 0.07719565 0.2862975 0.029881919 0.1651654 0.09303956 0.36569777 -0.0065708947 0.12517494 0.20332733 -0.01489714 -0.13941376 0.12920202 0.31898898 0.058131177 -0.26429695 -0.2663571 -0.22414011 0.37916404 -0.13499376 0.41558868 0.31389895 -0.17652956 0.3088094 -0.23986219 -0.16971044 0.6594445 -0.35534632 -0.46978858
